110 300
the 0.0056834337 0.007942483 -0.0012892423 0.022210808 -0.018627882 0.013231802 0.03182268 -0.0033102883 0.025002789 -0.020107863 -0.045107644 -0.0049397605 -0.016535718 -0.023544418 -0.016965088 0.015440295 0.018569143 0.020933136 -0.004087028 0.0009811288 0.02012508 0.021033848 -0.006488473 0.0074373884 -0.027565436 0.0045513967 -0.023385469 -0.02470901 0.013055978 0.020055756 -0.021442719 0.019213758 0.013320217 -0.013713907 -0.056604225 0.01588953 0.009455284 0.014193045 0.014461204 0.04582504 -0.008604304 0.0014215112 0.016555527 0.001794178 -0.02547464 0.0029120648 -0.017132675 0.012363753 -0.007399795 -0.052322038 -0.05756216 0.01136384 0.006460232 0.015553656 -0.027772589 0.015196331 0.007402782 0.007956603 0.010393624 0.03465806 -0.007905771 -0.048565615 -0.027652578 -0.0075520743 0.00955125 -0.015771009 0.020004356 -0.010072536 -0.0322521 0.023763081 -0.048204776 -0.017253188 -0.03983241 0.011619922 -0.0037227455 0.03609455 -0.0066553466 0.004631104 0.0010177095 0.015028033 0.029314315 -0.009143738 -0.032473918 0.00067616894 0.042877108 0.0007820293 -0.016272182 -0.029587233 -0.042275935 -0.050581962 0.0071846116 -0.024941226 0.01127325 -0.0070876745 -0.03300077 -0.036738675 -0.017337821 -0.019389452 -0.0049560657 -0.011022559 0.01863908 0.010443298 -0.00085154996 -0.008752599 0.0009755634 -0.061187666 0.011101692 -0.0037689132 -0.008756042 -0.020378811 0.020357456 -0.022402702 0.013974158 -0.036001924 -0.018464074 -0.0067822672 0.028883394 -0.028356606 0.01924011 -0.011624427 -0.012909067 0.053556234 0.033076685 0.008586977 0.011711259 0.025442017 0.024420531 -0.010654837 -0.027866457 -0.011237838 -0.009226329 -0.006834139 0.03683252 0.023908446 -0.023562785 -0.020641731 0.0050047943 -0.028716147 -0.012478189 0.013814796 -0.009552438 -0.007880492 0.01013103 0.025203492 0.010764416 0.022675917 0.016806943 -0.01669137 0.004606907 0.011432492 -0.040602416 -0.025255917 0.0271765 -0.00044698743 -0.010155946 -0.004508083 -0.005823508 -0.011213301 -0.004701549 0.004314801 0.0022854067 0.0029857534 -0.047383368 0.010429862 0.024331825 0.004811484 -0.032533273 0.032046687 -0.014090299 -0.0075298185 0.016572306 0.009694118 0.010597711 -0.0073497705 0.004298609 0.005792747 -0.068229906 0.020232124 0.032412395 -0.04047661 0.011367149 0.034758814 0.0011894997 -0.037776224 -0.01623597 0.008654738 -0.010153183 -0.04753903 0.011498655 0.0024492668 0.030709209 -0.024328303 0.016961455 -0.024871537 0.04579858 -0.00270737 0.0013326964 -0.06543737 -0.0065669105 0.0016890989 0.031182174 0.012708105 0.047152966 -0.028980026 -0.028809076 0.021677174 -0.017018871 -0.018546833 0.015163932 -0.016085433 0.028039608 -0.02416439 -0.0267069 -0.055092953 -0.009912294 0.023422837 -0.0026365293 0.03250557 -0.04494757 -0.0027642015 0.039843246 0.0038925784 0.01645976 -0.0044659832 -0.03148048 -0.0087949 -0.013802509 0.041293375 0.011319371 -0.021350028 -0.018344976 0.008823491 0.0038935 0.015532071 -3.821041e-06 -0.055241734 -0.018288571 -0.027519936 0.027353333 0.006229236 -0.023131043 0.033400837 0.013699012 -0.014413343 -0.010891374 -0.01590854 -0.065503635 0.0023148237 0.04560724 0.024784127 -0.009608542 0.005085926 0.028393392 -0.016110865 0.009820069 0.028745383 -0.0459685 0.020262688 0.01958266 0.018151788 -0.059730195 -0.016056959 -0.006770604 -0.01984841 -0.012262547 -0.05003681 0.014011909 -0.004562811 0.017146984 0.021587148 0.0069986614 0.0012559099 -0.016401432 0.02652297 -0.010609832 -0.028227871 -0.0098652635 0.019336984 0.014453181 -0.028115224 0.022450449 -0.008007482 0.005218956 0.007909377 -0.009283646 -0.012818786 0.051260542 0.024013747 0.021297727 0.04079398 -0.0076051685 0.019807296 -0.011854375 -0.0060305297 -0.040117342 0.032910433 0.02680549 0.004581295 0.015036913 0.013222591
in 0.003392546 0.006222404 0.0002491669 0.017040225 -0.013432874 0.009654324 0.022630733 -0.002904595 0.018784164 -0.013658492 -0.03308851 -0.0029132192 -0.010927652 -0.015206447 -0.010332482 0.008482995 0.012389925 0.012969812 -0.00039054456 0.000129994 0.012372372 0.01640806 -0.004110097 0.003344535 -0.016457241 0.003603453 -0.0155501915 -0.017314976 0.010807272 0.012942092 -0.0162142 0.014277916 0.011562339 -0.008896642 -0.038055535 0.012566719 0.006677895 0.010785827 0.009718259 0.031698085 -0.0037046392 0.001540528 0.012280122 -0.0007436093 -0.017415144 0.0016650177 -0.012680654 0.0075736768 -0.0040096985 -0.036013875 -0.039286762 0.006936519 0.00428193 0.012086984 -0.018165706 0.011562183 0.0032386517 0.0064927624 0.005652366 0.024028655 -0.0038742847 -0.033761855 -0.018918019 -0.0049893074 0.0051626405 -0.009754891 0.014530186 -0.00471556 -0.022569101 0.01620067 -0.03178919 -0.011790848 -0.029425751 0.0059541482 -0.0030711077 0.023941644 -0.0059512667 0.0046701883 -0.0012915732 0.010168553 0.019447511 -0.0067974874 -0.021650953 -0.00093599415 0.030299356 0.00040947282 -0.011529534 -0.018416036 -0.029603912 -0.034627486 0.004816376 -0.015843617 0.008364326 -0.0040721213 -0.021865971 -0.025548916 -0.014055937 -0.013439071 -0.0037144744 -0.007298906 0.01338574 0.007903622 -0.00207393 -0.0073522087 0.0020411331 -0.042746466 0.009858028 -0.0019953398 -0.0062317466 -0.014256022 0.015827872 -0.016466815 0.010519185 -0.024037981 -0.013534715 -0.0033175345 0.019709904 -0.019550296 0.013535412 -0.0069683976 -0.009218386 0.036471527 0.02173589 0.004783577 0.009297228 0.018215744 0.016770625 -0.006622757 -0.018789003 -0.00888538 -0.0043861386 -0.0038269905 0.024779228 0.015944816 -0.017973872 -0.013620543 0.003941888 -0.020777036 -0.008038624 0.011243584 -0.00698115 -0.004157464 0.005266328 0.015318541 0.005943966 0.01629617 0.009630507 -0.009803086 0.0045832093 0.008284911 -0.028584663 -0.017575724 0.020602617 0.0018912284 -0.006033518 -0.0045979265 -0.002214717 -0.005982615 -0.0010993542 0.0030150816 0.0018664042 -0.00015556552 -0.031802073 0.006961639 0.015304366 0.0025210578 -0.024338601 0.022772925 -0.011004008 -0.0045869984 0.010530143 0.0076584755 0.008660814 -0.0047480124 0.0045479382 0.004623966 -0.045963712 0.013015557 0.023436908 -0.025846254 0.0056716106 0.023517158 -0.00038572843 -0.027914107 -0.011299431 0.006314693 -0.0070246863 -0.03128591 0.008303604 0.002189138 0.020792745 -0.01639268 0.0115281865 -0.017059885 0.029572725 -0.0014232234 0.0018353163 -0.045469966 -0.0030415743 0.00117837 0.01976383 0.008924415 0.030840162 -0.02105938 -0.02110191 0.016737442 -0.009981316 -0.011956576 0.011040867 -0.010943772 0.020627864 -0.016267281 -0.016740972 -0.037538562 -0.007171479 0.014285206 -0.0017731924 0.021440146 -0.030346962 -0.0017932612 0.02673597 0.0026636338 0.010789277 -0.0034149063 -0.02307976 -0.0056012813 -0.008859898 0.02897156 0.008866893 -0.015342147 -0.013604056 0.0054302476 0.0024453145 0.010664232 0.0005136344 -0.037156276 -0.010887275 -0.02003052 0.018694947 0.0058635445 -0.016280234 0.023002332 0.008695308 -0.00940889 -0.0071151666 -0.011165684 -0.045608312 0.002287214 0.030500028 0.015682112 -0.0067047975 0.0028986752 0.020656994 -0.010662067 0.008529465 0.01891592 -0.031098234 0.01452677 0.012650379 0.0140805915 -0.04002791 -0.010096712 -0.00669975 -0.013078313 -0.0066469684 -0.033425555 0.010936682 -0.005157104 0.01040413 0.014731003 0.0051901513 -0.00012216177 -0.010358008 0.018922491 -0.0077659157 -0.01833918 -0.0076345787 0.0115878 0.009218752 -0.021866301 0.015164911 -0.004451865 0.0014475513 0.006806915 -0.0076582865 -0.006843502 0.033850513 0.015164856 0.013499887 0.026888058 -0.0036019625 0.01393163 -0.008856803 -0.006841988 -0.028092623 0.02268399 0.021035708 0.0020692635 0.009532738 0.009984941
your 0.004096242 0.005862422 -0.0015509719 0.01935741 -0.014849416 0.011855327 0.029164385 -0.003934791 0.021403799 -0.018433394 -0.0407489 -0.0048046885 -0.016563427 -0.019291922 -0.014051988 0.011393834 0.015039453 0.016461698 -0.0038314953 0.00087889977 0.017969582 0.021203281 -0.006086838 0.005076159 -0.024187418 0.0045893616 -0.020497596 -0.019669767 0.012975528 0.015367445 -0.02029517 0.015825482 0.01310524 -0.011504181 -0.04883732 0.012965849 0.006599146 0.012079377 0.013350425 0.039776668 -0.005380854 -0.0008762029 0.016826354 0.002154371 -0.020638661 0.0027821297 -0.015165501 0.010502059 -0.0058272746 -0.047766816 -0.05129217 0.008306096 0.0044684624 0.013019177 -0.023384027 0.012951699 0.006299309 0.0077971225 0.008809993 0.031618286 -0.0075775203 -0.041666094 -0.023066424 -0.00808825 0.0056149336 -0.012602269 0.016526027 -0.007885718 -0.027844772 0.021822168 -0.0395686 -0.015180624 -0.036089424 0.009881653 -0.001505399 0.02976907 -0.006435803 0.002962377 -0.0004909543 0.014363486 0.024985546 -0.008961807 -0.026867695 -0.00053576985 0.036828805 0.003515222 -0.01524983 -0.02648231 -0.037069216 -0.042736974 0.0054717083 -0.021196619 0.011738698 -0.006862509 -0.02954589 -0.033980813 -0.016026838 -0.017254563 -0.0051755053 -0.011260903 0.01604265 0.010172683 -0.0007550257 -0.0070526153 0.0028887722 -0.053807225 0.010763857 -0.003304798 -0.0077476986 -0.016451707 0.020323044 -0.019172104 0.012910072 -0.031592946 -0.016129576 -0.0069125313 0.024649935 -0.02470715 0.016632166 -0.01118781 -0.011111954 0.045938846 0.02898287 0.00872845 0.0098954 0.02000904 0.022421824 -0.0088493 -0.025099888 -0.00937197 -0.0077384394 -0.006255965 0.033526193 0.022986745 -0.02111125 -0.017974496 0.006001878 -0.026269447 -0.0107338205 0.013561538 -0.007716088 -0.00655472 0.009863421 0.020677932 0.010880553 0.01699168 0.012351276 -0.014333357 0.006168745 0.009449697 -0.035527505 -0.021183988 0.025228854 0.00016275192 -0.0060790307 -0.0035201092 -0.005357629 -0.0075583877 -0.0040078075 0.006138012 0.00061123795 0.00045697007 -0.042713013 0.009316084 0.02312358 0.0055353255 -0.030213851 0.02837146 -0.013410671 -0.0066332016 0.014461459 0.0073025543 0.012040971 -0.0053273286 0.005739499 0.0038469424 -0.058674503 0.01714782 0.028344657 -0.035585873 0.008026104 0.031914752 -0.0011520896 -0.035119258 -0.015512097 0.007670662 -0.00926196 -0.04308023 0.011760549 0.001594392 0.026681265 -0.01953071 0.012818465 -0.020342186 0.040312372 -0.0023470472 0.0005833212 -0.0566313 -0.0046248874 -0.00065088616 0.025696572 0.008288864 0.041718762 -0.026731089 -0.027275233 0.018738177 -0.01558306 -0.017344436 0.0118313115 -0.013552439 0.026216788 -0.018974721 -0.022259142 -0.045812152 -0.008658116 0.018634332 -0.0030373223 0.026770238 -0.037672482 -0.0038241164 0.034572303 0.00322663 0.0128411455 -0.0016158576 -0.028719533 -0.006699101 -0.011803219 0.033734176 0.011079121 -0.020021446 -0.015546634 0.0065357354 0.0037029234 0.013716285 -0.0017210178 -0.047559567 -0.01577643 -0.02254159 0.023992844 0.0037690245 -0.018977452 0.026358632 0.009792872 -0.010415271 -0.007889515 -0.012927281 -0.056842245 0.0043854215 0.039605632 0.022029486 -0.010415702 0.0040618633 0.026016556 -0.015164167 0.009759529 0.02551888 -0.039147794 0.016408445 0.016034575 0.016145771 -0.053230226 -0.013032466 -0.00559314 -0.017614333 -0.010110379 -0.043625917 0.01489095 -0.0059501324 0.016652213 0.019468058 0.0056930846 0.0013510652 -0.014428391 0.024234485 -0.009325532 -0.023979148 -0.008754482 0.016302435 0.013707928 -0.026130645 0.020706385 -0.007059353 0.004863923 0.0076077813 -0.010054413 -0.008482825 0.045208592 0.019840406 0.01773635 0.036786355 -0.0062090363 0.01730822 -0.009856074 -0.0065085404 -0.035999715 0.027799373 0.025413908 0.0008618079 0.015493765 0.01354417
his 0.0008062764 0.0028715334 0.0013593467 0.013268956 -0.009018634 0.0056434297 0.016076019 -0.001240356 0.014378607 -0.008659953 -0.02167282 -0.002504016 -0.008098557 -0.009800268 -0.008118087 0.008739153 0.011008388 0.012136584 -0.0009688097 0.000412507 0.0084002325 0.012403712 -0.002795484 0.0023658492 -0.013642319 0.0022157745 -0.010831712 -0.012069894 0.00828725 0.01073625 -0.010826105 0.011765825 0.006662132 -0.0045736297 -0.027263703 0.00697077 0.002898456 0.008448172 0.008878298 0.023946477 -0.003061745 -0.0018201494 0.009105237 0.0017064066 -0.012089581 0.0006239118 -0.0082286205 0.004560079 -0.0022289446 -0.027853437 -0.03025542 0.0066633495 0.0030337602 0.009077285 -0.013896224 0.009633025 0.0046069534 0.0031066425 0.0031775455 0.018318234 -0.0045715705 -0.025264107 -0.013831817 -0.0053930446 0.0022644047 -0.008410283 0.008286859 -0.0054043434 -0.0142918555 0.010315582 -0.02407818 -0.00800244 -0.020306783 0.0032635836 -0.0024412088 0.018422721 -0.0043865326 0.0041152397 -0.0005335474 0.008311909 0.015541091 -0.0059377216 -0.017000996 -0.001525342 0.022782408 0.0011945324 -0.009859083 -0.015887646 -0.021492898 -0.026133247 0.0030603702 -0.013605158 0.0065878895 -0.0030535958 -0.016323099 -0.019717837 -0.008133339 -0.010053511 -0.0031948723 -0.0043537105 0.009166144 0.006228863 1.3407294e-05 -0.0041947695 -0.0008054718 -0.03055303 0.007313111 -0.0038036373 -0.003479177 -0.008920619 0.011322396 -0.012268936 0.009172596 -0.019851005 -0.008110981 -0.0021195037 0.015537001 -0.014914559 0.010624318 -0.0048866007 -0.008493598 0.027434193 0.017032694 0.0026030685 0.0044247513 0.011159393 0.011021807 -0.0069979983 -0.014440961 -0.0052800486 -0.0038138367 -0.0022489838 0.020074543 0.012700067 -0.013823635 -0.011139599 0.0020343813 -0.012875247 -0.0041393554 0.007057234 -0.003165574 -0.0035644853 0.0045338133 0.013333843 0.0065190485 0.011683281 0.006479748 -0.0090624085 0.004234864 0.0043738745 -0.020995555 -0.01087165 0.013447085 -0.000874698 -0.0045158817 -0.0045134937 -0.0031396167 -0.005555446 -0.0011054027 0.0034354103 0.0016228504 0.0018737066 -0.025361871 0.0044930396 0.013441618 0.0038632776 -0.018461656 0.015295386 -0.008213304 -0.0027904182 0.007521661 0.0041078697 0.00570969 -0.0022355572 0.0019662683 0.0026878782 -0.034570627 0.011695012 0.017307028 -0.019322962 0.0063853483 0.016729884 0.0010717773 -0.020278467 -0.007935966 0.0038406122 -0.0057219057 -0.022962362 0.006744474 -0.00020236119 0.013953267 -0.011856444 0.007633447 -0.010663814 0.021687992 -0.0029636913 0.0026168756 -0.03278486 -0.0045532673 0.0017958083 0.015617277 0.004680961 0.023952946 -0.015982734 -0.01473978 0.011909451 -0.0071528247 -0.009929048 0.0062494827 -0.0062585846 0.016406436 -0.010739393 -0.011915888 -0.027845932 -0.0052750623 0.012858982 -0.0026374187 0.017151255 -0.020831045 -0.0005792471 0.019721016 0.003657676 0.00815795 -0.0030468772 -0.016545458 -0.0037257452 -0.006268975 0.020670906 0.005693588 -0.012261849 -0.007681556 0.0027829676 0.0023546664 0.008898133 -0.0023067931 -0.028538782 -0.0076957 -0.012269931 0.012188933 0.0037897693 -0.010968468 0.01563132 0.005232581 -0.0047733597 -0.004813883 -0.009050663 -0.032557033 0.001772132 0.023925316 0.012027609 -0.0065752533 0.0008702047 0.013403927 -0.007280092 0.0068243593 0.014974646 -0.023408765 0.011918524 0.009675071 0.010904796 -0.029849464 -0.007055992 -0.005601247 -0.010216582 -0.0043582455 -0.024833199 0.006323416 -0.003148631 0.0084474785 0.010651675 0.0041107703 0.00033505453 -0.006596329 0.011949394 -0.0070234416 -0.013292584 -0.004432044 0.010622522 0.0063849976 -0.012954442 0.0109434845 -0.003902525 0.001124608 0.0050845086 -0.0051252865 -0.0050898637 0.024023531 0.012068901 0.0096591795 0.019638184 -0.0033862873 0.009071818 -0.005421567 -0.0039415453 -0.02231667 0.014257233 0.014602075 0.0017744574 0.0070463866 0.008033236
and 0.0041588577 0.0050106533 -0.0003220508 0.013466547 -0.009854116 0.006569897 0.021495016 -0.0032376484 0.017179143 -0.0124904495 -0.029930359 -0.0045815064 -0.0118677085 -0.015309495 -0.011919751 0.008270824 0.010667095 0.013778661 1.7311473e-05 0.0026352068 0.012983207 0.013902316 -0.0045835087 0.005106505 -0.016387716 0.003070624 -0.013517366 -0.016136345 0.009687635 0.010682854 -0.013305605 0.014076708 0.007974891 -0.00844013 -0.035083562 0.011426791 0.0061898106 0.009340289 0.008610358 0.0291098 -0.0044744667 0.0003162919 0.010229525 -0.00016189655 -0.017011918 0.0021072722 -0.010883411 0.0066351457 -0.0044250386 -0.033042043 -0.03755387 0.008045153 0.0037478332 0.0091913175 -0.016770432 0.0094719725 0.0053755585 0.0050513735 0.006305074 0.02355878 -0.004720963 -0.03133578 -0.017307607 -0.0055550477 0.0054370784 -0.00964136 0.013888827 -0.0044226223 -0.0217663 0.016094934 -0.031240378 -0.011511631 -0.026868334 0.0064484887 -0.0029342335 0.02263638 -0.004172198 0.003370144 0.00011071728 0.009728914 0.016739774 -0.0047334465 -0.019751484 0.00043084766 0.027622338 0.0026673307 -0.010516634 -0.020063946 -0.026566008 -0.032322247 0.003646416 -0.016136345 0.007641284 -0.00588161 -0.02226895 -0.022554167 -0.0109892115 -0.011638929 -0.001964001 -0.009227378 0.013831052 0.0057084505 -0.00035098026 -0.0048776413 0.001539108 -0.039702274 0.007298934 -0.004208935 -0.0046071187 -0.01267794 0.0151117025 -0.014566528 0.011032892 -0.023348246 -0.013167887 -0.005142997 0.018055579 -0.017940382 0.012215483 -0.009082485 -0.010371245 0.03432257 0.020120319 0.004351218 0.007583672 0.015331556 0.01526754 -0.008012323 -0.018342191 -0.0071210098 -0.005164142 -0.0043332307 0.022514181 0.017367702 -0.014571597 -0.012118364 0.0047329688 -0.017053036 -0.0056352825 0.0091227945 -0.004260651 -0.0039764335 0.0070643816 0.015780983 0.0053842613 0.01388457 0.011516182 -0.009825045 0.003460712 0.0072039985 -0.023806987 -0.014276954 0.01657555 0.0015766197 -0.0052234316 -0.005300653 -0.003698008 -0.0061183064 -0.0022710334 0.005127672 0.0027312913 0.0010579751 -0.031414296 0.005148145 0.01576869 0.0038573851 -0.020463357 0.021389354 -0.0080891475 -0.006956053 0.011536337 0.0061444137 0.008051464 -0.0044890684 0.0018077185 0.0025290682 -0.04198581 0.013118855 0.021618497 -0.025243685 0.007477144 0.022380171 0.000291469 -0.025621759 -0.0111724315 0.0050927848 -0.00727063 -0.030864853 0.0069676638 -0.0008192518 0.017232182 -0.015997257 0.010730318 -0.014271355 0.030019522 -0.0028278772 -0.0002391517 -0.04084939 -0.002155754 0.0005495801 0.017709747 0.006624792 0.027925706 -0.018766923 -0.017432155 0.01508791 -0.009969829 -0.010723389 0.007201844 -0.00960494 0.019480905 -0.015563079 -0.01688466 -0.03398213 -0.0056096134 0.01497925 -0.0033079542 0.019888138 -0.027574059 -0.0015186764 0.025820505 0.0045130868 0.009234976 -0.0037585364 -0.018405827 -0.007193967 -0.007863463 0.026840296 0.007683905 -0.013438817 -0.010215777 0.005041748 0.0021957208 0.008979912 -0.0020787914 -0.0329753 -0.010827328 -0.016510159 0.018090652 0.004310073 -0.015137598 0.019072056 0.008456555 -0.0074056275 -0.0054058908 -0.009940773 -0.04209361 0.0016745462 0.028295835 0.0153016355 -0.0066630086 0.004294234 0.017882215 -0.011812914 0.007122384 0.016736515 -0.02992161 0.013573652 0.0121469535 0.01332161 -0.038145583 -0.011601544 -0.0037533462 -0.01264288 -0.0066842698 -0.029754918 0.008652113 -0.003139113 0.011855292 0.013215874 0.003944879 0.0017862148 -0.007940519 0.017740913 -0.0072689797 -0.016238905 -0.0052267686 0.013254745 0.008060812 -0.017629996 0.01299587 -0.0030502125 0.0025061585 0.0031264513 -0.006469931 -0.006901354 0.03108752 0.01489581 0.0144621255 0.026004143 -0.0033541538 0.0119398665 -0.008836972 -0.0048417547 -0.025290644 0.02068885 0.016879857 0.0026838707 0.010793325 0.009082117
to 0.00474028 0.008310842 -0.00058680377 0.025424512 -0.020550435 0.015130733 0.03585877 -0.004035272 0.02948722 -0.020818675 -0.05190318 -0.0044916985 -0.018420985 -0.02515802 -0.016982354 0.016326759 0.020354798 0.022735577 -0.002609573 0.0020628865 0.019696021 0.023984566 -0.006035096 0.008292268 -0.02921518 0.003838323 -0.026390241 -0.026119985 0.014265945 0.019106131 -0.026020395 0.021188967 0.015497032 -0.014413344 -0.06151958 0.019719856 0.0080827465 0.013542842 0.017363505 0.047922578 -0.008087721 0.0010566855 0.020658676 0.002592537 -0.02750197 0.0016050416 -0.02192412 0.012021232 -0.009749747 -0.056549057 -0.06427355 0.01233381 0.0074025523 0.018283663 -0.029781519 0.016276227 0.0053339144 0.0074527143 0.010842315 0.037746016 -0.008311199 -0.05031043 -0.028147636 -0.010098955 0.010253878 -0.015411329 0.022563465 -0.009891555 -0.03365086 0.025816645 -0.051823534 -0.018023385 -0.04331087 0.012103278 -0.0040478804 0.038460672 -0.00790817 0.0057167774 -0.00096479594 0.018396702 0.030468987 -0.008997155 -0.032764573 -0.00035014175 0.047817405 0.002835012 -0.018176142 -0.032069724 -0.044264883 -0.05229427 0.008255255 -0.026812539 0.013902842 -0.008830605 -0.035202865 -0.042358346 -0.020287594 -0.021422256 -0.0038948734 -0.013713308 0.02158422 0.011107142 0.0003940838 -0.010665448 0.0020375357 -0.065068625 0.014563916 -0.0050322968 -0.0071950965 -0.021518301 0.025397304 -0.023304436 0.017672488 -0.040809233 -0.019170988 -0.008054286 0.031073296 -0.030901013 0.022568911 -0.013779923 -0.0154252965 0.05896755 0.03759078 0.010228484 0.012623576 0.025524916 0.028051944 -0.011978096 -0.029761417 -0.011634931 -0.00740521 -0.008079001 0.039692074 0.027126001 -0.028648712 -0.023086246 0.0060456786 -0.030743372 -0.011989349 0.016984688 -0.008709801 -0.0068804924 0.0099175405 0.025149923 0.010413332 0.02184684 0.01691338 -0.018712671 0.0044458257 0.013311166 -0.044680335 -0.027047455 0.030322673 0.001874389 -0.009905969 -0.0065047997 -0.0062704124 -0.012856656 -0.0031050737 0.0047078333 0.0037096466 0.0029662054 -0.051058836 0.009790219 0.027065078 0.0065502147 -0.035370216 0.035457462 -0.016461607 -0.008630196 0.019705808 0.009423835 0.014874926 -0.0067783743 0.0047816276 0.006346387 -0.07430605 0.023899095 0.036521744 -0.043141454 0.011775665 0.037754986 0.00048871996 -0.04086327 -0.019872122 0.009283409 -0.011853362 -0.053010948 0.01396857 0.0015862819 0.03145633 -0.025159463 0.015771119 -0.027439605 0.048918758 -0.004636263 0.001702447 -0.06953726 -0.006886598 -6.927309e-05 0.031404786 0.013959889 0.049560122 -0.0331702 -0.032027278 0.02273312 -0.019439315 -0.022280471 0.016089214 -0.016224258 0.03227418 -0.026594356 -0.026515657 -0.058546696 -0.011952498 0.023029944 -0.005216828 0.03567661 -0.04850742 -0.0041406984 0.043403912 0.0060693803 0.015638016 -0.0031636637 -0.0328514 -0.011200921 -0.014381634 0.045138713 0.012663601 -0.02359951 -0.021453626 0.009413366 0.0024401655 0.015490159 -0.0027025905 -0.060235947 -0.019901488 -0.02998052 0.029365927 0.0070373467 -0.023875792 0.03388551 0.013205172 -0.015072431 -0.013169063 -0.01757016 -0.072629124 0.0051318714 0.05028912 0.027363429 -0.010374848 0.005629866 0.029537212 -0.017594116 0.0107394485 0.029781796 -0.051147033 0.02144994 0.0210685 0.021662317 -0.06489176 -0.01946942 -0.008650823 -0.021661624 -0.011816135 -0.055533107 0.016431538 -0.00788099 0.019204052 0.021502098 0.0058449022 0.0024553216 -0.017658839 0.028022159 -0.011167449 -0.028370855 -0.010465645 0.021822687 0.014761335 -0.03226223 0.022989769 -0.0060317777 0.0067133573 0.008308631 -0.010417192 -0.012928711 0.055874087 0.0255398 0.02263755 0.04591654 -0.0075734346 0.018308664 -0.013952074 -0.008309 -0.045470733 0.034374367 0.030677753 0.0037452565 0.017867438 0.016088886
even 0.00048422557 0.0031212564 0.000310568 0.009470604 -0.008643332 0.0071344627 0.01582911 -0.0020658928 0.012310762 -0.010590758 -0.019599386 -0.0032839125 -0.00863691 -0.010286397 -0.008964177 0.007921484 0.010359655 0.009627252 -0.00024919934 0.0025755842 0.010183433 0.011722775 -0.0017491103 0.0035271717 -0.011062378 0.0012393743 -0.012527815 -0.010323675 0.006626617 0.009982383 -0.011608362 0.008634187 0.0068032183 -0.0043723406 -0.024496865 0.008715081 0.0041456935 0.0076820673 0.00897909 0.02148931 -0.0035742759 -0.000438539 0.00930626 0.00058015785 -0.012418899 -0.00029119026 -0.009031771 0.0068353214 -0.004112588 -0.02601068 -0.027237853 0.0036809843 0.0044641737 0.0091017345 -0.012842065 0.008097811 0.003877778 0.003787728 0.005150335 0.016503869 -0.0044278405 -0.022941766 -0.0123335095 -0.0044779093 0.0041558584 -0.0075505367 0.009499335 -0.0026749673 -0.013648379 0.010137995 -0.019968046 -0.006047505 -0.019156013 0.0043048356 -0.002074731 0.016534714 -0.002650799 0.0016999077 0.0013487763 0.009214624 0.01282848 -0.0040330547 -0.015846306 -7.99769e-05 0.020547485 0.0020621722 -0.008694782 -0.013374497 -0.017791014 -0.02427495 0.0032575005 -0.012828984 0.007069545 -0.0033052033 -0.015963994 -0.018560061 -0.007047301 -0.0072811013 -0.0027231262 -0.0070377253 0.007416181 0.004630002 -0.0013098534 -0.0056832214 0.001151749 -0.029575424 0.0046301405 -0.0004920963 -0.002512523 -0.008106939 0.009630542 -0.010694556 0.007751122 -0.018780297 -0.008567947 -0.00436658 0.012086282 -0.01240013 0.0084016565 -0.0059331874 -0.0061506997 0.024088392 0.014182716 0.0035102202 0.0066286107 0.010681767 0.010170955 -0.00427278 -0.0125459675 -0.005541192 -0.0026664522 -0.0017013049 0.017555367 0.012029777 -0.012970117 -0.009679063 0.0042406395 -0.012060948 -0.0063104685 0.005820565 -0.0041588913 -0.0036978098 0.004624428 0.012737237 0.003500338 0.009733988 0.0065978416 -0.007361454 0.0022782767 0.004788405 -0.018167593 -0.010764821 0.013835332 -0.0010054643 -0.0048846113 -0.0036491496 -0.0014784469 -0.005491512 -0.0010685436 0.0024258583 0.00072833296 0.0019676916 -0.020489534 0.0054036053 0.011945868 0.0026788067 -0.01571663 0.015033308 -0.00552308 -0.0049886215 0.0076969033 0.0035349047 0.006506433 -0.0033202209 0.0023393906 0.0011160418 -0.032336883 0.010398153 0.015361128 -0.01825323 0.0063656094 0.014614656 0.00045839592 -0.017734995 -0.008888836 0.0033846209 -0.004165041 -0.023334013 0.0058507235 0.00052293245 0.014461671 -0.011232408 0.0067305756 -0.012291421 0.020789957 -0.0027166104 0.002070962 -0.029555473 -0.0011741738 0.0015710832 0.012476368 0.0050310465 0.021619834 -0.011656054 -0.011946491 0.01057708 -0.0061801267 -0.00923899 0.0077291103 -0.0061121224 0.014152308 -0.010298419 -0.012978489 -0.024146318 -0.0060700253 0.009073263 -0.0029970587 0.013623273 -0.019960478 -0.00071535225 0.017041411 0.0012690176 0.0076435236 -0.0018420893 -0.013941578 -0.0039803674 -0.006427542 0.018558547 0.0058060912 -0.008564705 -0.008582891 0.0032574309 -0.00029634053 0.0065470617 0.0011986088 -0.026086502 -0.009343129 -0.014128881 0.0131362155 0.003111139 -0.010832414 0.013814571 0.007155893 -0.007422608 -0.006661112 -0.006806709 -0.029279757 0.0007398299 0.020072183 0.011604354 -0.005657884 0.0033917804 0.013158321 -0.009118253 0.0032146024 0.012153046 -0.022311011 0.009682953 0.008201185 0.0075298673 -0.028172977 -0.008985298 -0.0031813206 -0.009030724 -0.0037046126 -0.021541772 0.007611006 -0.0015364115 0.009093668 0.009471405 0.0038489979 0.0011190933 -0.007044425 0.010930863 -0.0054251016 -0.013687722 -0.0049605584 0.009576609 0.0070708864 -0.012472821 0.009391009 -0.0017784528 0.00063895195 0.0042361626 -0.0027693086 -0.0066965716 0.022471163 0.009652762 0.010345359 0.017050633 -0.0021189281 0.009268793 -0.006907652 -0.003313123 -0.020381963 0.015845964 0.014552015 0.00034459587 0.0067899493 0.005936304
a 0.0041469256 0.0043239356 1.544223e-05 0.014403545 -0.011585769 0.008316636 0.020792993 -0.0029098867 0.014933942 -0.01208941 -0.028747816 -0.0025760273 -0.009115698 -0.013896242 -0.0096706515 0.008425244 0.010484181 0.013439841 -0.0018230965 -0.000105484585 0.010529959 0.013820157 -0.0023944706 0.0024189267 -0.014496891 0.0030059852 -0.013541438 -0.015546082 0.008721821 0.012621762 -0.012528731 0.011195396 0.0076332474 -0.0062122033 -0.033523154 0.011632408 0.0063861595 0.0092703765 0.010924796 0.027798548 -0.0031839847 -0.00015289141 0.009294092 7.529778e-05 -0.014127289 0.0016738694 -0.012828096 0.0057748626 -0.005592944 -0.033365108 -0.03582752 0.0077987537 0.0030118306 0.010870028 -0.01728794 0.010880289 0.0038496251 0.002823141 0.0054973015 0.021506457 -0.0054097576 -0.027127806 -0.01704395 -0.006217606 0.0054963464 -0.00997572 0.012566453 -0.004898324 -0.02035165 0.014055709 -0.027417518 -0.009691533 -0.023833295 0.0074093523 -0.0038968825 0.02008009 -0.0056005986 0.00397108 -0.0012510439 0.0104240365 0.015993936 -0.0044047777 -0.019085387 0.00013951554 0.025086267 0.00018086877 -0.009828512 -0.018475458 -0.025626495 -0.028125063 0.004670761 -0.014551658 0.007425907 -0.005775176 -0.021479815 -0.023207026 -0.010117245 -0.011042812 -0.0040564574 -0.008522954 0.010517856 0.007952119 0.0010359884 -0.0063383877 -0.00026889093 -0.038094595 0.0073131667 -0.00077343115 -0.004068826 -0.010456246 0.012959095 -0.013070592 0.009392751 -0.022843672 -0.012380018 -0.002862518 0.018392485 -0.018413005 0.013779314 -0.0061023077 -0.009100612 0.030811993 0.019925749 0.0056550005 0.006149908 0.013285353 0.015682936 -0.0053019887 -0.01670048 -0.0049492903 -0.0058336677 -0.004368875 0.024100138 0.014687831 -0.0145542305 -0.01145186 0.0032893247 -0.017107094 -0.006078546 0.010421405 -0.0043906327 -0.0043961024 0.0053546224 0.016115256 0.007041519 0.012478675 0.00885152 -0.0111658415 0.002677643 0.0063652415 -0.025079843 -0.015358364 0.01654091 -0.0013035563 -0.0063139475 -0.0032054987 -0.0013247052 -0.005518453 -0.0031228112 0.0048020324 1.3739803e-05 0.0017169956 -0.029884906 0.0043405322 0.013856163 0.002089507 -0.020956252 0.01959707 -0.009970171 -0.0059472127 0.01147265 0.0056178896 0.00727803 -0.0050095604 0.0034047312 0.001962305 -0.0406473 0.012276687 0.020758988 -0.024247471 0.0060103047 0.021464415 0.0016494268 -0.023404863 -0.011528857 0.004386729 -0.006627242 -0.02963857 0.008809096 -0.0010334535 0.016315278 -0.014262864 0.008242823 -0.016072193 0.028049553 -0.0034228966 -0.00024472366 -0.038049817 -0.004729459 0.0001511233 0.019124359 0.007889162 0.02770737 -0.0181506 -0.019259805 0.0143426815 -0.009423215 -0.011084852 0.009951145 -0.008837913 0.0163407 -0.013352168 -0.014939069 -0.030766785 -0.0051266383 0.012139388 -0.0018032028 0.019356174 -0.025880842 -0.002438132 0.023576584 0.003082026 0.009814434 -0.0022227087 -0.020335842 -0.0062448676 -0.008966445 0.02345691 0.0073511815 -0.01223855 -0.011579207 0.0053023314 0.0031645366 0.009325663 -0.001805899 -0.032885805 -0.012079872 -0.016440568 0.01634153 0.0035723594 -0.013755111 0.0184592 0.008433849 -0.008800415 -0.0076025142 -0.009874665 -0.040893946 0.0007468528 0.028235989 0.013763201 -0.006824478 0.0040846393 0.018445473 -0.011503653 0.00718257 0.01731805 -0.025944136 0.013648849 0.011070116 0.0105549265 -0.037990224 -0.010770664 -0.00547149 -0.011176375 -0.006495559 -0.029391933 0.010783265 -0.0046975706 0.011740025 0.011540097 0.004136694 -0.00093454093 -0.009561881 0.016143106 -0.008043405 -0.016758922 -0.005328268 0.009677256 0.008383619 -0.01884804 0.012561803 -0.0047558383 0.0031704484 0.004148135 -0.006213398 -0.0055672256 0.030085897 0.012802983 0.011234987 0.026149523 -0.0038731191 0.010569527 -0.007719881 -0.006072708 -0.024096858 0.020117048 0.01787154 0.0032299014 0.011495655 0.0077119614
of 0.0029068212 0.006455466 -0.0012752084 0.018158587 -0.012723724 0.010132029 0.022603966 -0.003099431 0.020396167 -0.012824949 -0.033502396 -0.004879534 -0.010853991 -0.016337352 -0.012478239 0.009479228 0.0152391875 0.015390062 -0.0016232602 0.0027368094 0.015454847 0.018245019 -0.0052915816 0.0043900586 -0.017928572 0.0034598396 -0.016195962 -0.016731257 0.0109036 0.014672003 -0.015205023 0.013914268 0.010548303 -0.010090856 -0.04025094 0.013304557 0.006032368 0.01135222 0.012237228 0.032559935 -0.006481469 -0.0016865323 0.013386167 0.001740765 -0.018391222 0.002759576 -0.013675272 0.0073108906 -0.0068181125 -0.039881565 -0.043448783 0.008508674 0.006262884 0.011108127 -0.018394088 0.010860605 0.004885532 0.004165562 0.008063947 0.02559585 -0.0041500144 -0.034471516 -0.020444661 -0.005323468 0.0071455888 -0.009319876 0.015099816 -0.005133808 -0.023595754 0.018814648 -0.035672255 -0.013464768 -0.030897476 0.006448649 -0.0016585457 0.024233848 -0.006183838 0.0033668187 8.7814944e-05 0.012162071 0.020172378 -0.007976272 -0.0230337 -0.0010102588 0.03147574 0.00086611905 -0.012328493 -0.02128843 -0.031090904 -0.03534533 0.0064587686 -0.019779382 0.0076752915 -0.0044909157 -0.02343279 -0.027177593 -0.012743061 -0.014924007 -0.0015776124 -0.009095818 0.015955724 0.0091806045 0.00063525804 -0.00808525 0.0009528485 -0.045223627 0.0077757933 -0.0014476952 -0.0060599055 -0.0133232 0.016106386 -0.016328428 0.010147533 -0.026398646 -0.0125726145 -0.0056514577 0.01962953 -0.022205357 0.013717898 -0.00934181 -0.0109204305 0.040126793 0.025304383 0.005967671 0.010245255 0.016651606 0.01897702 -0.00688027 -0.018621348 -0.009742907 -0.0046710107 -0.0046949317 0.026699252 0.018497454 -0.020055115 -0.016223567 0.0058122748 -0.02237832 -0.007890227 0.01045462 -0.0078009623 -0.005121741 0.0077848514 0.01613089 0.009221992 0.016105749 0.011232129 -0.012862941 0.005297247 0.008136693 -0.027753621 -0.01686507 0.021633789 -0.00046421075 -0.005384046 -0.0035511819 -0.004774928 -0.008877818 -0.0016935504 0.0032648537 0.0017108361 0.0006176991 -0.035568967 0.005463348 0.01652288 0.004908638 -0.02335104 0.024133699 -0.011529049 -0.00721193 0.013611762 0.0077710846 0.008224428 -0.005992292 0.0031139564 0.0029551578 -0.049821854 0.016188981 0.024579348 -0.027579933 0.0070860116 0.026207047 5.142294e-06 -0.028829962 -0.014499542 0.0058309115 -0.009303141 -0.034582384 0.008159836 0.0024501123 0.022117918 -0.01859802 0.009800664 -0.016581032 0.034834553 -0.0039403425 0.00295185 -0.0470002 -0.0059085554 0.0021411097 0.02268973 0.009052231 0.033200707 -0.021228664 -0.022805069 0.01765036 -0.013463456 -0.013425375 0.010891965 -0.011519698 0.021227943 -0.018660054 -0.019909566 -0.03968386 -0.0057129916 0.017878054 -0.0018742178 0.02437068 -0.033626687 -0.0032714475 0.02959529 0.0037980978 0.010854789 -0.00267132 -0.021980489 -0.008064341 -0.008301979 0.031205768 0.00822508 -0.017465184 -0.014743387 0.006411592 0.0014034426 0.011981323 -0.0013039026 -0.039578795 -0.0128416745 -0.021291528 0.01988382 0.0041304007 -0.016728727 0.024242952 0.009039498 -0.009280375 -0.007416471 -0.009983945 -0.049281135 0.0012757062 0.034386866 0.018210117 -0.007875663 0.004328665 0.021798283 -0.013944985 0.007979416 0.021117082 -0.033456862 0.015583328 0.014203943 0.0137187205 -0.04456214 -0.010891335 -0.0067964066 -0.013402836 -0.00823428 -0.035972428 0.01137102 -0.005660643 0.011034752 0.015457255 0.0029403311 0.0018681695 -0.009520973 0.018050106 -0.009148801 -0.018396208 -0.005500282 0.014224037 0.012301593 -0.022415621 0.017861022 -0.005821307 0.0033334058 0.0039684605 -0.0063430304 -0.01022725 0.038597 0.016736794 0.016117815 0.028372014 -0.0055234446 0.012201048 -0.009323433 -0.004079917 -0.030081877 0.022983743 0.021456202 0.0035086337 0.01268513 0.01019047
were 0.001923069 0.004709659 0.00034322756 0.010949116 -0.008729696 0.0056903516 0.017857192 -0.0031187087 0.013521666 -0.010590867 -0.025106015 -0.002103673 -0.0079768095 -0.010260288 -0.0072152233 0.008858954 0.010950159 0.012358444 -0.0017059494 0.0021149016 0.010672443 0.011638824 -0.0019253828 0.0022015374 -0.0125082275 0.0003191371 -0.010997455 -0.011876013 0.0068361983 0.0082773175 -0.012283914 0.01161271 0.007822395 -0.0051831817 -0.030166587 0.009604121 0.0030914452 0.0079396125 0.009715069 0.024534244 -0.0052797287 -0.0010175435 0.008152242 -0.0006057817 -0.012295836 0.0025284213 -0.010975188 0.0041129855 -0.0042582103 -0.028929062 -0.030427033 0.0054883775 0.0032237738 0.008149852 -0.013749679 0.009590388 0.003261171 0.0045874044 0.0049961316 0.01973615 -0.0021820955 -0.024265513 -0.014511647 -0.0052544163 0.0025331366 -0.007980333 0.010226314 -0.0047165193 -0.015614495 0.013562275 -0.025179617 -0.008351487 -0.021570342 0.0053320993 -0.0033630163 0.018950252 -0.004285906 0.0025379627 -0.0014274305 0.009320995 0.013330144 -0.0033501603 -0.014629158 -0.00027475925 0.020545943 0.0028058118 -0.008566452 -0.014956134 -0.021959271 -0.026013682 0.0038609998 -0.014259327 0.006043174 -0.0057495763 -0.016035588 -0.020203903 -0.0080934055 -0.009766442 -0.0019945023 -0.0069514522 0.011106162 0.0073835915 -0.0005904818 -0.0055978787 0.0016156859 -0.030132404 0.006678881 -0.0034667142 -0.0040666847 -0.008508601 0.009606394 -0.011270367 0.006581657 -0.018408645 -0.010279727 -0.0030724155 0.014026792 -0.015033488 0.010231377 -0.0070037246 -0.008613473 0.028573701 0.01817327 0.0054472964 0.005732088 0.013367968 0.013654862 -0.0058266483 -0.013228997 -0.0046523656 -0.003054936 -0.0029393518 0.018793313 0.011822796 -0.013120869 -0.010636549 0.0049796817 -0.015745832 -0.007323071 0.0077875964 -0.0038836114 -0.0043829824 0.0038220696 0.010986476 0.0052479254 0.010512851 0.008803602 -0.007863267 0.0035812093 0.0066898307 -0.019936815 -0.012654695 0.015889034 0.0017509679 -0.004029567 -0.0047108964 -0.0038896303 -0.0050000874 -0.0011603886 0.004247905 0.0007102022 0.00067559583 -0.023438122 0.004655817 0.011766286 0.0022226123 -0.016478295 0.017811023 -0.008471968 -0.0042003416 0.008479342 0.00618156 0.0066008572 -0.0051141777 0.0018605727 0.0023607113 -0.03580557 0.010891814 0.017400226 -0.020466853 0.004011037 0.017146453 -0.0006922001 -0.019521829 -0.010888364 0.0036945925 -0.0072204676 -0.025328066 0.0077345287 0.00033928466 0.016322155 -0.013772039 0.009141854 -0.012397148 0.024817215 -0.0012439631 0.0016864983 -0.032387476 -0.0045796586 0.0009748212 0.016959136 0.0064607253 0.02569186 -0.016497822 -0.016621323 0.010821193 -0.009111855 -0.01032848 0.0069341944 -0.009785797 0.014724779 -0.010614248 -0.014703338 -0.028517827 -0.006089769 0.012047211 -0.002052719 0.017360665 -0.02138023 -0.0031616883 0.021566076 0.0037505815 0.007751803 -0.002643122 -0.016891748 -0.0036327685 -0.0060910955 0.020862151 0.0067092185 -0.011389685 -0.0092631895 0.0056466167 0.0022053414 0.0070030643 -0.001049165 -0.02935955 -0.0105193835 -0.014397231 0.015046979 0.0040246835 -0.009990732 0.0174305 0.0072969687 -0.006592575 -0.005070662 -0.008534828 -0.034026083 0.0006047441 0.021958785 0.0128569575 -0.0067522535 0.002811737 0.013130952 -0.007268939 0.0043832585 0.013200361 -0.023891358 0.009830689 0.010473378 0.009833409 -0.03133484 -0.009084663 -0.0039762566 -0.0109303165 -0.006937567 -0.02624757 0.008848408 -0.0019545455 0.009755578 0.012233573 0.0035434552 0.0017775096 -0.009155298 0.013155409 -0.005283597 -0.01521055 -0.003701768 0.0080688335 0.0065354416 -0.015955525 0.011653162 -0.0042599263 0.0017375386 0.0053931414 -0.0034992772 -0.0052114925 0.026585275 0.010490904 0.009261779 0.022191681 -0.004143605 0.009015555 -0.0051800823 -0.0028148147 -0.020804752 0.017760709 0.014891136 0.0027685668 0.0073588286 0.007628363
he 0.0024379937 0.0042332606 0.0003615713 0.01520889 -0.010479622 0.007930127 0.019175494 -0.0015340863 0.017181648 -0.011748637 -0.030083083 -0.003527203 -0.011281021 -0.013143461 -0.008835059 0.009516537 0.010571522 0.0140520185 -0.0023115838 0.0018109604 0.013045985 0.013418731 -0.002980891 0.0052153664 -0.016013663 0.0020811632 -0.015620388 -0.0155180385 0.009015858 0.010539048 -0.015522581 0.013029199 0.009810474 -0.0059358976 -0.033119354 0.00885122 0.0053379782 0.009735801 0.00833844 0.027361512 -0.0030476642 -0.0004716924 0.012195514 -0.00012759649 -0.015527007 0.00075979356 -0.011893 0.008279935 -0.004508349 -0.031811338 -0.036366712 0.0053893663 0.002385027 0.010874314 -0.015550917 0.00929478 0.0023827548 0.0051157456 0.0071848757 0.023412336 -0.0038896236 -0.028355377 -0.017725518 -0.0036781628 0.0051271976 -0.009954794 0.012360537 -0.0062900987 -0.019094875 0.016515914 -0.028456606 -0.011915552 -0.026625976 0.007478415 -0.0032499759 0.021675233 -0.0056936448 0.0038096595 -8.226712e-05 0.0091975285 0.017688025 -0.0044370955 -0.020069614 -0.00021443322 0.025787506 -0.00018487913 -0.011913914 -0.017504541 -0.026353193 -0.031012226 0.0056608478 -0.016945524 0.0077556274 -0.006243447 -0.021033343 -0.022950796 -0.011540126 -0.010541739 -0.003542556 -0.0074364664 0.012424423 0.0066549 -0.000661038 -0.0053455685 -6.291338e-05 -0.036495734 0.007697972 -0.0024723911 -0.006095696 -0.010898568 0.013400821 -0.0130975675 0.007858269 -0.022413058 -0.012489874 -0.0026750823 0.017743262 -0.016800363 0.012442305 -0.0071261767 -0.008287754 0.03404068 0.020158745 0.0065883603 0.005939379 0.016543811 0.014001007 -0.0057803835 -0.017416436 -0.007172736 -0.006445638 -0.005477058 0.023012077 0.015412314 -0.015653567 -0.014424166 0.0038675524 -0.01804809 -0.008504647 0.0074525187 -0.0056004142 -0.0034807269 0.006666065 0.01349491 0.005803572 0.013982043 0.008662963 -0.009670449 0.003865962 0.0077516204 -0.026021728 -0.01408052 0.01584363 -0.0012428147 -0.005135626 -0.0036494203 -0.0016408841 -0.006879337 -0.0012733658 0.0034688502 0.0029712028 0.0008513342 -0.029701049 0.005402231 0.015198664 0.0014644192 -0.020585118 0.021194926 -0.008739184 -0.0057415557 0.011371062 0.004596271 0.008019757 -0.0028389124 0.0031913621 0.0028811684 -0.04042715 0.012093426 0.018975753 -0.025845112 0.007853752 0.023045203 0.0012425481 -0.02544555 -0.011824897 0.0042731455 -0.008096362 -0.030155296 0.0069717453 8.030504e-05 0.017001327 -0.015307932 0.008017819 -0.01694709 0.028242452 -0.0013437184 0.0007222203 -0.039667446 -0.0027864254 1.6693604e-05 0.020256056 0.0072322 0.027905606 -0.017066658 -0.018783698 0.014588983 -0.008843597 -0.013407146 0.0076113166 -0.010783951 0.017908685 -0.014748361 -0.015819356 -0.033247672 -0.006457053 0.015453553 -0.0012371567 0.01813913 -0.02830612 -0.001274187 0.0260147 0.002117966 0.011324896 -0.0019843772 -0.019052515 -0.0070653628 -0.008500694 0.024064567 0.007743116 -0.013697855 -0.012305786 0.00422344 0.0030177946 0.011072087 -0.001178651 -0.0341277 -0.012757713 -0.016615598 0.016459145 0.0036923953 -0.015132545 0.021415513 0.0088743735 -0.008123444 -0.0059172004 -0.008760019 -0.040210895 0.003057595 0.028718622 0.015197448 -0.0044625853 0.0028250664 0.017543964 -0.01109818 0.008005156 0.01872481 -0.027874576 0.011627371 0.010279573 0.013154105 -0.038782954 -0.0115710385 -0.0052960734 -0.011173446 -0.008248649 -0.031909604 0.011010873 -0.003261262 0.012259224 0.011760439 0.0022776686 0.0012652726 -0.009133593 0.01625189 -0.008412241 -0.018232523 -0.0059956135 0.011810341 0.008344842 -0.016662424 0.013490226 -0.0044542677 0.0023647936 0.0060345344 -0.007404444 -0.0061672623 0.032294422 0.01333547 0.013112547 0.024176268 -0.004693113 0.012815558 -0.006523254 -0.004340135 -0.024664856 0.020445036 0.015841788 0.0015176615 0.00871524 0.009359642
so 0.0028744792 0.006639686 -0.0020063699 0.01820252 -0.015879128 0.011921864 0.026249079 -0.00404015 0.020594766 -0.01711379 -0.03896127 -0.002687066 -0.014286804 -0.018884765 -0.013801333 0.01301669 0.016235085 0.016108144 -0.0017997926 0.0010963305 0.014882733 0.0173393 -0.0033229117 0.005374582 -0.020127462 0.0029605983 -0.01830142 -0.019879252 0.011795049 0.015875444 -0.019248486 0.017196203 0.010889448 -0.01025677 -0.046956252 0.012332717 0.007722155 0.012783278 0.014867504 0.03758202 -0.0049953475 -0.0015236591 0.014195353 0.00011524165 -0.019921377 0.0014732493 -0.0150359785 0.009990033 -0.006290549 -0.04398792 -0.048818894 0.009304927 0.006928344 0.013228526 -0.022147823 0.013189753 0.0036021094 0.0045794947 0.00972169 0.0296718 -0.0072848913 -0.03767138 -0.021699103 -0.0053144787 0.007976737 -0.012994974 0.016295006 -0.005756815 -0.026049942 0.018307056 -0.03748035 -0.013198365 -0.035313815 0.009706214 -0.0034044648 0.029312242 -0.0056258156 0.004707344 -0.0005430271 0.012589953 0.021805588 -0.0077835643 -0.026666278 -0.0014085523 0.034842417 0.0006201391 -0.014326025 -0.022679579 -0.035471603 -0.040209856 0.005075141 -0.019993797 0.009680259 -0.0064538 -0.026991367 -0.030514916 -0.016185641 -0.015573569 -0.0023355803 -0.008986428 0.01581876 0.0084397625 -0.0011031218 -0.0076565486 -7.4135525e-05 -0.049663804 0.010908385 -0.005078142 -0.0055596717 -0.01573188 0.017558703 -0.016863922 0.013839702 -0.031191846 -0.016006531 -0.0036696738 0.024080424 -0.02266574 0.016906582 -0.00872611 -0.010095969 0.044871453 0.025506526 0.006659752 0.008886316 0.019094324 0.020161128 -0.010249845 -0.021773553 -0.009094073 -0.0062503424 -0.004616471 0.030884711 0.022007518 -0.021350214 -0.016691612 0.004170041 -0.024877321 -0.008695723 0.013339856 -0.007130318 -0.0052752797 0.008691389 0.018953854 0.009374036 0.018612105 0.013767499 -0.014068026 0.0041522933 0.010514615 -0.033654578 -0.021084478 0.022513239 0.0009259268 -0.0055302004 -0.0065895496 -0.0023749354 -0.010278988 -0.0014589988 0.0065871296 0.0014935848 0.0013872295 -0.03749783 0.007163118 0.019361565 0.0044613425 -0.026857663 0.025373802 -0.013108453 -0.0066571976 0.013354983 0.0077752196 0.009303987 -0.0058231386 0.0055889203 0.0034502384 -0.05703619 0.015651543 0.02685176 -0.0327047 0.0078332685 0.028154826 0.0005537529 -0.03196777 -0.014656024 0.005288715 -0.009197938 -0.03906337 0.011328115 0.0018655708 0.024583165 -0.021026306 0.0137004 -0.019929018 0.036503 -0.002585913 0.00065938407 -0.05436105 -0.0036959837 0.0009930349 0.02614693 0.009155634 0.036778446 -0.024534669 -0.02598952 0.017882284 -0.013971772 -0.016040903 0.012101312 -0.012967992 0.024754338 -0.01837078 -0.020112768 -0.04493503 -0.009665 0.017859172 -0.002665215 0.024989406 -0.03462522 -0.0044710804 0.03197449 0.005336984 0.011471632 -0.003757867 -0.024892773 -0.007866829 -0.010506522 0.03267344 0.01082548 -0.017409949 -0.014290985 0.0064083743 0.00063815434 0.011831203 0.0005047458 -0.045432314 -0.015070664 -0.021422911 0.021804921 0.00602462 -0.018242748 0.027754668 0.011765585 -0.012093612 -0.009700805 -0.0128692845 -0.054533426 0.0013411085 0.036615867 0.019128634 -0.008742214 0.005075106 0.022347957 -0.014739362 0.009453699 0.023561792 -0.03747698 0.017086376 0.015411328 0.016115203 -0.048065357 -0.0149294855 -0.0072315456 -0.015328037 -0.0081969965 -0.04109948 0.013420015 -0.0058981883 0.013611387 0.016488548 0.004541094 0.00022175255 -0.0121270325 0.023131656 -0.011105892 -0.022716276 -0.005814255 0.015291695 0.010137055 -0.025319481 0.018158432 -0.006880335 0.0028828871 0.0065673026 -0.008659155 -0.010984337 0.040910747 0.019108778 0.017124206 0.0337933 -0.0038249833 0.014485965 -0.009200187 -0.004803379 -0.033679087 0.025245145 0.024328694 0.0029682806 0.011877605 0.01065599
told 0.0032965401 0.0060037635 -0.0014591708 0.022286855 -0.01475959 0.012308832 0.027594991 -0.0033634233 0.021855438 -0.015657699 -0.041569326 -0.004261251 -0.015634893 -0.018029913 -0.01475577 0.013393938 0.017661879 0.017209463 -0.001572441 0.0021211843 0.01815545 0.018860793 -0.0044988175 0.0070582274 -0.023038423 0.0046246354 -0.020095237 -0.020946167 0.012219892 0.015264375 -0.020554774 0.018446492 0.011624304 -0.00962446 -0.048872616 0.016273333 0.006732241 0.010556779 0.012540858 0.038590576 -0.0078047016 0.00015496842 0.015198479 0.0022508027 -0.022845063 0.0021124657 -0.015030027 0.008175541 -0.008257349 -0.04867282 -0.051859207 0.01054474 0.004623984 0.015947197 -0.023178523 0.014355641 0.005570559 0.006209178 0.010097185 0.029256992 -0.006805442 -0.041892666 -0.022341529 -0.007274615 0.0075601568 -0.011372453 0.017569475 -0.0068450854 -0.029684348 0.022666542 -0.041162483 -0.014368709 -0.03725653 0.0071097603 -0.0041435775 0.031987894 -0.006902435 0.006094767 -0.0010021715 0.014517641 0.025665091 -0.006669867 -0.025906991 -0.0007567159 0.038276482 0.0018996747 -0.01351518 -0.024661772 -0.035474855 -0.04492095 0.008868734 -0.020431109 0.010274934 -0.0074302303 -0.030794267 -0.033657223 -0.015029112 -0.015927114 -0.0040574567 -0.0117064575 0.018126778 0.010984963 -0.0017055174 -0.0087641 -0.00013445846 -0.05405853 0.010450007 -0.0026552698 -0.005491898 -0.01655834 0.019491063 -0.020131052 0.012660798 -0.031582065 -0.014362299 -0.005295797 0.025815208 -0.024606405 0.018323949 -0.011137706 -0.010711195 0.047391668 0.028042614 0.007613069 0.01153674 0.02274135 0.022816448 -0.010814892 -0.02275028 -0.009107299 -0.0057861 -0.0061666677 0.033241957 0.022233829 -0.021474699 -0.019852765 0.006299213 -0.02533573 -0.01030421 0.0138580715 -0.0072284746 -0.007037777 0.009357009 0.02094681 0.010256974 0.01797307 0.01416971 -0.014980866 0.0055343513 0.0089397 -0.033005785 -0.020807369 0.025155416 -0.00089051045 -0.0070714313 -0.004860674 -0.002300837 -0.009202776 -0.0016037055 0.003832878 0.0013946538 0.0003370618 -0.04042416 0.00882571 0.020506892 0.0040747905 -0.028791765 0.028637033 -0.013319528 -0.006758105 0.016669163 0.0090855835 0.012249728 -0.004527486 0.0039189486 0.0054343697 -0.060395576 0.018624915 0.029026698 -0.034927476 0.010109982 0.03014937 0.0013757264 -0.0353557 -0.017020337 0.0077660508 -0.008910611 -0.04132831 0.010154076 0.0009846963 0.026414998 -0.02146595 0.012689876 -0.021861885 0.04162835 -0.003396189 0.0023431554 -0.055420183 -0.0038141806 0.0007801959 0.026966665 0.011453141 0.04142677 -0.026226515 -0.025158394 0.017769562 -0.015425826 -0.018040538 0.012788409 -0.013713786 0.026088826 -0.020938009 -0.023531709 -0.046969805 -0.009072528 0.02130948 -0.0053637256 0.027237656 -0.037695825 -0.004962923 0.03332781 0.0026174213 0.012766378 -0.0019321193 -0.027464228 -0.008947568 -0.012940808 0.034884214 0.011066905 -0.017810907 -0.015007935 0.007476476 0.0013771503 0.013616224 -0.0017889403 -0.04801728 -0.017204374 -0.023317823 0.022904253 0.005205729 -0.020556236 0.02728114 0.011673569 -0.012221293 -0.011008304 -0.012460729 -0.05763916 0.0040361746 0.0384376 0.021369072 -0.0073408596 0.004492293 0.02373143 -0.013115841 0.010427548 0.024351174 -0.038953524 0.019976685 0.0149158025 0.015738526 -0.052329157 -0.015648821 -0.0069776145 -0.01707353 -0.008735475 -0.043997996 0.014051556 -0.0055342885 0.014766047 0.019169187 0.0034070364 0.0010705647 -0.014549759 0.021401772 -0.0112211285 -0.024333697 -0.0077787484 0.017210806 0.013868915 -0.027069796 0.018277325 -0.006889699 0.0033695486 0.0076678335 -0.007981078 -0.011095056 0.04568534 0.021462757 0.017790146 0.03607259 -0.0056899386 0.015946593 -0.010331688 -0.005143506 -0.03666915 0.029024558 0.024330087 0.0034435703 0.014673409 0.011525965
Peanut 0.000922056 0.004309439 -0.0018739899 0.007909054 -0.007260915 0.005048963 0.011945615 -0.00037748113 0.008382203 -0.0053188615 -0.016842231 -0.0021486194 -0.006603316 -0.0063368413 -0.0043631215 0.006430104 0.0071192845 0.0053163436 -0.002035754 -0.00038419763 0.0057333857 0.006803844 -0.00126927 0.0006313207 -0.008361876 0.0018911915 -0.008339766 -0.0072966977 0.0050176354 0.0078375675 -0.0059528137 0.007545112 0.003629687 -0.005676294 -0.019516084 0.00554825 0.0012181746 0.0035218706 0.0047110235 0.016326915 -0.0012580955 0.00067303464 0.004950724 0.00012753779 -0.0079658115 -0.0006291144 -0.0071837427 0.0024136945 -0.0013702988 -0.016576689 -0.019482937 0.004906481 0.0022586777 0.005853766 -0.0087019745 0.0038385848 0.0030215415 0.0015316362 0.0033773493 0.010425684 -0.0023403857 -0.014964021 -0.009214229 -0.0018050914 0.0042004744 -0.0038358225 0.0057446402 -0.0024356944 -0.012114193 0.0069870283 -0.015940782 -0.0054513942 -0.015076201 0.004578116 0.00017206736 0.010621296 -0.0017620608 0.0033634228 0.0009110904 0.0070986687 0.009990477 -0.0045045163 -0.008988546 -0.00048438288 0.013556378 0.002176575 -0.0045199543 -0.010304263 -0.014788862 -0.017418526 0.0031816876 -0.008595567 0.0031703075 -0.0016576889 -0.012338593 -0.013673281 -0.007186326 -0.004820135 0.00018498031 -0.005138221 0.006618279 0.0044996147 -0.0015662673 -0.002574185 0.0004258204 -0.020241199 0.0030618834 -0.0012260808 -0.0034579146 -0.0049234945 0.006056916 -0.0064126346 0.0047692517 -0.01116245 -0.004873484 -0.0025375492 0.009355222 -0.00928957 0.008253986 -0.0031843411 -0.005942093 0.017489694 0.010278991 0.004511985 0.003081427 0.006703114 0.008459366 -0.0042733266 -0.007615133 -0.002138219 -0.0033424173 -0.0014383658 0.012336578 0.01001487 -0.008838331 -0.007689345 0.0023214305 -0.010550851 -0.004578182 0.004843347 -0.0023565975 -0.0025800783 0.0042586625 0.008830587 0.0052477755 0.007270515 0.0045757666 -0.0053670304 0.0017115119 0.003004791 -0.011807179 -0.00961947 0.009834604 0.0009695066 -0.0035824447 -0.0014826314 -0.00011776651 -0.0024125597 -0.0025150345 0.0008041 8.4677806e-05 -4.4801483e-05 -0.01695278 0.0031740016 0.0068256287 0.0019845 -0.0117969 0.009164229 -0.0055884877 -0.0028735844 0.0048919134 0.00236571 0.002520254 -0.0038528542 0.0016652489 0.0028917713 -0.02168149 0.0052225757 0.009845888 -0.01238316 0.0031354297 0.012265888 0.0009619246 -0.013464917 -0.005329769 0.0022284356 -0.0034116097 -0.017015832 0.0039228136 0.001980299 0.010703929 -0.008648052 0.0054848543 -0.0077471035 0.014891886 -0.0011606144 0.0013756263 -0.020185355 -0.0021880679 0.00022277105 0.009553655 0.0044170152 0.01702668 -0.00892438 -0.010604497 0.008699636 -0.004495681 -0.0050000995 0.0049527287 -0.006139073 0.010406577 -0.007963195 -0.008048867 -0.017677087 -0.003918379 0.007028223 -0.0029119006 0.010232815 -0.015291661 -0.002238425 0.012062754 0.0020125378 0.004720889 0.00029032762 -0.011859694 -0.003071655 -0.0061379215 0.012334222 0.0026093726 -0.008739224 -0.006386647 0.004014483 0.0021244097 0.005280737 -0.0014253882 -0.01904049 -0.0046666586 -0.008207878 0.008552696 0.002090096 -0.008257002 0.010023439 0.004007624 -0.0030786942 -0.0036316842 -0.003820486 -0.022239866 0.0026546563 0.0145602785 0.009486188 -0.0042497735 0.0015906963 0.009385336 -0.0057935896 0.0036719157 0.009330798 -0.015880054 0.005563357 0.0054838764 0.006273092 -0.020684334 -0.0073633925 -0.0032319932 -0.006549683 -0.002062172 -0.016126879 0.0059779203 -0.0031237716 0.0045302184 0.007938197 0.0025737958 -0.0010499354 -0.004641769 0.009643136 -0.005313785 -0.010402378 -0.0040291348 0.0066491873 0.0049373764 -0.009571884 0.009110681 -0.0023225616 0.001628355 0.0012369612 -0.0025397951 -0.0027639624 0.017361991 0.009135412 0.006691615 0.015291862 -0.00071414426 0.0052271215 -0.003095259 -0.0030608464 -0.01549739 0.009082218 0.011041749 0.0007642022 0.004805513 0.0042304983
butter 0.0034464567 0.0019150804 0.00076014426 0.009762285 -0.0073830523 0.0058126207 0.0148792695 -0.0025110312 0.012422505 -0.0073774457 -0.021621633 -0.0027468277 -0.0084515605 -0.010350594 -0.0063035795 0.006641675 0.007344477 0.008359753 -0.0008420394 0.0022144415 0.007685703 0.009300988 -0.0018119734 0.0027852773 -0.0101528745 0.00272566 -0.010570075 -0.009072614 0.0048821676 0.009030054 -0.009433295 0.009852506 0.005282036 -0.006399771 -0.024180532 0.00751382 0.0039401692 0.0056902883 0.0077242763 0.020242693 -0.0023601404 -0.00081496633 0.006717933 -9.55151e-05 -0.010458859 0.00063775096 -0.009466348 0.0045592207 -0.0026235748 -0.022412349 -0.0254129 0.003453743 0.0022273413 0.0056410595 -0.012703104 0.006299799 0.0025517729 0.0042981706 0.004532883 0.016617801 -0.0046217497 -0.019728458 -0.012099774 -0.005268302 0.0027488668 -0.0069057965 0.008957239 -0.0030378597 -0.014622306 0.009903916 -0.022223504 -0.007063052 -0.019000346 0.004526969 -0.0029662591 0.01512378 -0.0039346274 0.0034323996 3.3618435e-05 0.008771227 0.011184155 -0.0038956364 -0.014543239 -0.0016347677 0.020505777 0.00013543305 -0.006254048 -0.013189397 -0.017905818 -0.022512982 0.0041071675 -0.010679899 0.0066776583 -0.002319097 -0.014798965 -0.017170303 -0.0067602377 -0.00916419 -0.0029869361 -0.0042232564 0.009795946 0.0051862453 0.00019612219 -0.003786133 0.00046574188 -0.027119936 0.0060826046 -0.0019602235 -0.0020094598 -0.00997613 0.008476771 -0.010098371 0.0051027345 -0.015610898 -0.009138356 -0.0024793658 0.010802984 -0.010714978 0.009714514 -0.005715722 -0.0053834026 0.022939555 0.015166229 0.0046395813 0.0066549946 0.010622373 0.011794931 -0.0036295976 -0.011418138 -0.00330988 -0.003906733 -0.0044852113 0.01604406 0.012348879 -0.010763053 -0.009745151 0.0030116676 -0.013411124 -0.0052374704 0.0076841675 -0.0040144552 -0.0019265525 0.004362327 0.01018512 0.0037822942 0.0081099635 0.0073532937 -0.007472825 0.0033681158 0.0043562464 -0.017424095 -0.0111727035 0.010826377 -0.001057645 -0.0025104173 -0.0032523223 -0.0034124895 -0.0030875204 -0.0026202123 0.0042577856 0.0022610098 0.0013609286 -0.021794036 0.005091525 0.011228865 0.0030179867 -0.014780466 0.013641993 -0.005567041 -0.003818163 0.007715713 0.0027514086 0.006725067 -0.0017320192 0.0035311182 0.0025694922 -0.029643757 0.009381482 0.01304258 -0.018662486 0.0053206407 0.014864628 0.00022893766 -0.01569179 -0.008491321 0.004436883 -0.0055581946 -0.020507544 0.005905287 -0.0008657504 0.011843359 -0.008747501 0.00784298 -0.010686393 0.019350788 -0.0011556745 0.0018751466 -0.027693538 -0.00091484666 -0.0010993108 0.014376386 0.004420662 0.022036245 -0.013341217 -0.012300953 0.008359921 -0.008174823 -0.0074586393 0.004391523 -0.0076033655 0.014184848 -0.009153079 -0.010490792 -0.024162056 -0.005471895 0.008839304 -0.0018661617 0.012946184 -0.018006494 -0.0028669946 0.01660293 0.0034045407 0.008301166 -0.0029008344 -0.014456438 -0.0041344794 -0.0053474125 0.01911665 0.0055120247 -0.009601124 -0.008822079 0.0029772657 0.0013305155 0.0056883832 0.0008013184 -0.022932116 -0.0062704445 -0.0110371625 0.013294273 0.003615743 -0.008188333 0.014931969 0.0048828484 -0.0059451694 -0.005739011 -0.007913598 -0.02779834 0.001933011 0.020536747 0.010602538 -0.0034438015 0.002064813 0.0128137665 -0.006662843 0.0049587665 0.0119526535 -0.019416489 0.008401725 0.008669422 0.0081537375 -0.026874216 -0.0062153395 -0.0025054244 -0.008152445 -0.005171458 -0.022236746 0.0059674326 -0.0012634819 0.008043146 0.01062239 0.0034761145 0.00068197714 -0.005576509 0.010794863 -0.0038322604 -0.0124595165 -0.004750467 0.007185661 0.0050818836 -0.014308848 0.010364656 -0.0030122497 0.0021389525 0.003016173 -0.0031290338 -0.0057324627 0.02150977 0.010434812 0.010687174 0.018243397 -0.0036741337 0.0078091854 -0.0052486807 -0.00403595 -0.01776601 0.01448498 0.013159666 0.0024816534 0.0073059346 0.0050741257
jelly 0.00069507834 0.0050041233 0.0005060067 0.010764429 -0.00906212 0.00642506 0.014882006 -0.0032208157 0.0125723425 -0.00878881 -0.02132326 -0.0038247637 -0.008345466 -0.008735026 -0.005613698 0.004592063 0.0068113836 0.01013753 -0.00269421 0.0004137265 0.0087785665 0.009143807 -0.0020022641 0.0019045419 -0.01230638 0.002116679 -0.008893341 -0.010583626 0.0071977302 0.008301618 -0.011055289 0.009153046 0.0045164074 -0.0056184144 -0.023022277 0.008147279 0.0020627778 0.005836791 0.0074894233 0.019010555 -0.003706839 0.00036474408 0.007547938 -0.0006769667 -0.010355807 0.0003859414 -0.0063653374 0.0038786838 -0.004560224 -0.021695776 -0.026159925 0.0045182235 0.0034444286 0.0057656453 -0.011812499 0.008035017 0.0014778338 0.0030051267 0.0056354706 0.014452723 -0.0038669552 -0.021670908 -0.009683542 -0.0025575277 0.0046138456 -0.0050273626 0.009870068 -0.0026309276 -0.014183889 0.008747542 -0.021299558 -0.008759893 -0.018826315 0.003142122 -0.0019365377 0.015860204 -0.0037308175 0.0030265339 0.0002333578 0.008090613 0.010705325 -0.0050853994 -0.012463205 0.0013427146 0.01798006 0.0011061586 -0.008374416 -0.014262863 -0.01888317 -0.021871677 0.0043125004 -0.011839918 0.0046624453 -0.0033003965 -0.013864215 -0.015389888 -0.008349152 -0.0075488803 -0.0022951527 -0.0041895644 0.009395226 0.0062175104 -0.0014510868 -0.005110882 0.0017377393 -0.025877347 0.0050766137 -0.0010660733 -0.0031543456 -0.009354939 0.010132887 -0.007913718 0.006557605 -0.01660688 -0.0061176573 -0.0014620107 0.011507351 -0.01043482 0.008843487 -0.0045907893 -0.0045230184 0.023729047 0.015969679 0.004593931 0.004403825 0.008897322 0.009113148 -0.0035419501 -0.010430217 -0.005747814 -0.0040393975 -0.0014161855 0.015350723 0.010471817 -0.010539239 -0.008592186 0.0032858157 -0.011515942 -0.0063562174 0.0067262575 -0.002998108 -0.0022206719 0.0036483535 0.01179283 0.0051690657 0.010390162 0.0077859564 -0.0051271 0.0037806 0.00328807 -0.015783021 -0.011968256 0.012531475 -0.00041540226 -0.0024129031 -0.0027870685 -0.0010770427 -0.0039449306 -0.00021716 0.0037927947 0.0011460548 0.0013952813 -0.020937134 0.005140447 0.009865968 0.0021843077 -0.013329709 0.014359992 -0.0056562447 -0.005037889 0.005983392 0.0048008324 0.0042499336 -0.002713087 0.0020995017 0.0032169186 -0.030181296 0.01015587 0.01415499 -0.015209823 0.0044097295 0.015160822 0.00011196335 -0.018061688 -0.0072327396 0.003606865 -0.0053718747 -0.019275952 0.0055343756 0.001785976 0.013169457 -0.01024791 0.008213381 -0.011019487 0.017773155 -0.0012101599 0.0015174035 -0.02596727 -0.0019197625 0.00047826394 0.0134574 0.0032653508 0.01963128 -0.012847509 -0.01323604 0.010284214 -0.007234553 -0.0071835304 0.005475425 -0.0051769116 0.014199191 -0.009162638 -0.010497709 -0.02359091 -0.002929757 0.0109338425 -0.0019540107 0.014158879 -0.02034521 -0.002648986 0.018370755 0.0032859414 0.007074484 -0.000728797 -0.01286378 -0.005210727 -0.0043130573 0.016739601 0.0042636464 -0.009131133 -0.0063140974 0.0030440057 0.0014272841 0.006488364 -0.00059891114 -0.022304542 -0.008049264 -0.012462023 0.010377978 0.0010552182 -0.010493689 0.012815425 0.0047150324 -0.006592879 -0.0044626934 -0.0075095864 -0.029459562 0.0007085273 0.017646413 0.010519579 -0.004932145 0.0020053717 0.011073268 -0.007462341 0.0054383245 0.012155846 -0.019963661 0.008254949 0.007662123 0.0072098156 -0.02615708 -0.005515682 -0.0020884546 -0.008091249 -0.0035794394 -0.02047098 0.008065109 -0.0031021924 0.0079671005 0.0073130857 0.0020298478 -0.00018009976 -0.0054042344 0.010880501 -0.004583211 -0.012528358 -0.0049832645 0.008295914 0.0048060953 -0.010905134 0.009663166 -0.0017414314 0.0034747522 0.003855135 -0.0041160816 -0.0032204916 0.021670714 0.009611093 0.008627447 0.018720666 -0.0030064976 0.008202679 -0.0059266384 -0.003690373 -0.018022062 0.011896236 0.013695125 -0.00017304608 0.006832085 0.0048951516
caused 0.0039274003 0.0042107855 -0.0015918977 0.015942737 -0.011639051 0.009337209 0.01918242 -0.0025551498 0.017441817 -0.010501694 -0.027227465 -0.0023922797 -0.00970011 -0.012285111 -0.0098348 0.0072487216 0.010482929 0.012007665 -0.002870099 -3.7633592e-05 0.011323514 0.014582627 -0.0042254967 0.00464114 -0.016215524 0.00061318715 -0.014347704 -0.015364119 0.007969861 0.0122359805 -0.0123853795 0.0122751 0.009342703 -0.006962797 -0.03243761 0.009592072 0.005828315 0.007272226 0.009627793 0.026363423 -0.004701892 5.4972053e-05 0.011025343 0.0018860501 -0.015709 0.00047205933 -0.012590456 0.00798587 -0.00472049 -0.031955007 -0.034551885 0.006573324 0.0052875914 0.010754535 -0.016314562 0.009108753 0.0050286953 0.0037921835 0.0046571083 0.022728782 -0.0032847493 -0.028909083 -0.01597408 -0.0059612016 0.0063377973 -0.009116231 0.010973216 -0.0053666155 -0.020370454 0.014639105 -0.028322207 -0.010253072 -0.026953224 0.0067668133 -0.00096685806 0.020069659 -0.0044905078 0.004066375 -0.0003607662 0.010635639 0.01687068 -0.007292669 -0.019390171 2.7608548e-05 0.026362812 0.002413275 -0.009871561 -0.01780957 -0.025446761 -0.030699197 0.0058472278 -0.01678037 0.008462627 -0.006622813 -0.020704495 -0.02454137 -0.010025341 -0.010390061 -0.0042962744 -0.008863043 0.012165918 0.007122752 -0.0005296574 -0.004864601 0.0005695367 -0.03852467 0.00676471 -0.0014561976 -0.0032685287 -0.012641139 0.013328114 -0.014719005 0.009898788 -0.02298238 -0.012027772 -0.0038309908 0.016908778 -0.01834842 0.013729234 -0.006912293 -0.009003125 0.03399839 0.020032944 0.006634565 0.0062064445 0.015805481 0.013983215 -0.0075771427 -0.017929437 -0.007334404 -0.005419091 -0.0031327044 0.024388243 0.014896943 -0.016009104 -0.011524736 0.004151127 -0.016625948 -0.0055849995 0.0076664044 -0.0066871084 -0.0057532163 0.006982875 0.014054087 0.008127413 0.014871859 0.010612806 -0.009216874 0.0032460527 0.0064789564 -0.024520578 -0.014378028 0.01687692 0.0012842689 -0.004895601 -0.0051111514 -0.0039874376 -0.007511723 -0.0011787413 0.0026765666 0.0016874494 0.0019577036 -0.029683847 0.0040293783 0.014798421 0.0036666412 -0.019699214 0.020700667 -0.008026155 -0.005090509 0.010743716 0.0062987967 0.00923722 -0.0053449553 0.0046918206 0.002332586 -0.041348718 0.011509393 0.019223755 -0.025132399 0.0074635325 0.02283874 -0.0012249635 -0.023087865 -0.010792626 0.0044454997 -0.0076326868 -0.028448246 0.008031403 0.0009143915 0.018472454 -0.015629144 0.01115056 -0.014575402 0.027295213 -0.0016778815 0.00047132888 -0.038625866 -0.004787081 0.0016868671 0.018746037 0.0068860403 0.03027177 -0.016924113 -0.017177274 0.0134288 -0.009829263 -0.012227075 0.008964188 -0.010625164 0.018361244 -0.013853571 -0.014086416 -0.034574274 -0.0045554093 0.014664665 -0.0024408058 0.02046116 -0.027846755 -0.0036118673 0.0228528 0.0024207025 0.010727306 -0.0029607504 -0.020848107 -0.0054798685 -0.009127985 0.025624733 0.00862496 -0.015162158 -0.0118499035 0.0065688104 0.0010832039 0.01050593 -0.00071742677 -0.033348214 -0.012383465 -0.01712074 0.017686687 0.0045982637 -0.014901367 0.020269318 0.009082518 -0.008810254 -0.0055258325 -0.008378484 -0.039293274 0.002720392 0.026839467 0.015456708 -0.0050888844 0.0027337803 0.016939398 -0.010753461 0.007913096 0.018373918 -0.028494172 0.012118106 0.011559446 0.0132691385 -0.036918305 -0.010558215 -0.0053864773 -0.012152551 -0.00571805 -0.030583614 0.009610244 -0.004109561 0.011275521 0.013044128 0.004025327 0.0003491383 -0.009576123 0.015478902 -0.008637532 -0.015467291 -0.0048948587 0.011195832 0.00782711 -0.01749511 0.012830997 -0.002694697 0.0015328252 0.00317956 -0.0074456614 -0.006803454 0.029920084 0.01431258 0.012112272 0.023744548 -0.0050098756 0.010368273 -0.008378873 -0.0055992138 -0.026388576 0.018408466 0.018482827 0.0036783188 0.009487088 0.007195041
elderly 0.0011858689 0.0037079002 -0.0002933447 0.009161212 -0.00797901 0.004555564 0.012749446 -0.0018955157 0.011146553 -0.008189018 -0.018826682 -0.00050167326 -0.008334261 -0.0070837326 -0.006989505 0.004335447 0.007293036 0.0076139932 -0.00033067047 -0.00077684276 0.0064849863 0.0071619013 -0.003079557 0.0016934021 -0.01073149 0.0014365506 -0.0076866895 -0.008730054 0.00569181 0.005763842 -0.0068283193 0.007920214 0.005953899 -0.0051183123 -0.019748803 0.0074863117 0.0029827934 0.0043855407 0.006427793 0.01857984 -0.002082944 0.0009063167 0.007893366 0.00041045845 -0.009266462 0.00028626184 -0.008274436 0.005263507 -0.003291644 -0.019090978 -0.023356639 0.00466789 0.0011184724 0.0049419324 -0.010051448 0.004390641 0.0026389977 0.0022690843 0.0052636713 0.012529718 -0.00412454 -0.018654449 -0.009969196 -0.0023374138 0.00137076 -0.0054922304 0.007067105 -0.0045080893 -0.013539129 0.00825699 -0.016996857 -0.0052692466 -0.016845288 0.002807578 -0.0008827939 0.014243609 -0.0032041776 0.0035582709 -0.00073136255 0.004993809 0.0107764 -0.0035687515 -0.012913375 -0.00013753619 0.016953656 0.0018604769 -0.005662563 -0.0122869555 -0.0145563455 -0.018128492 0.0034988683 -0.010192667 0.0054589626 -0.0022751933 -0.013420003 -0.013387133 -0.0065295156 -0.0070902687 -0.0021768045 -0.0046281856 0.007983685 0.0050844685 -0.00025651685 -0.0022977216 0.0021860856 -0.024628818 0.005019141 -0.0021561366 -0.002049542 -0.0069384975 0.008724292 -0.009029852 0.00622155 -0.013767585 -0.0060367887 -0.0022585664 0.011147858 -0.01124107 0.007712722 -0.0050832187 -0.006247083 0.018692814 0.013380524 0.0016570734 0.0057566785 0.010054269 0.010633441 -0.0051881145 -0.0103212735 -0.003833467 -0.001700592 -0.0039212606 0.01361481 0.010309342 -0.010387103 -0.008668045 0.003936908 -0.012140515 -0.0034052215 0.0054403394 -0.0041841855 -0.0018707034 0.0028332344 0.009862037 0.005238736 0.008332629 0.0065768664 -0.0074856672 0.0032534443 0.0033677542 -0.016144969 -0.00863401 0.011797189 -0.00073587644 -0.0032930546 -0.000902565 -0.0022168995 -0.0054985234 -0.0022468125 0.003741137 0.00014262578 0.0004967665 -0.017883612 0.0037832123 0.009658799 0.000507961 -0.011669237 0.0122689605 -0.004478406 -0.0034179376 0.0077416557 0.0041550803 0.0041742916 -0.0028106095 0.0012436202 0.0018995606 -0.026794143 0.007920122 0.012651149 -0.01397187 0.0052857455 0.013889891 0.00095965166 -0.0165049 -0.007880038 0.0024536052 -0.0051985546 -0.017888024 0.005419617 0.001844743 0.011464164 -0.010735189 0.007403192 -0.010248913 0.016520582 -0.002416331 0.0022495124 -0.026176335 -0.0027231162 0.00013665669 0.010618712 0.005232278 0.01913204 -0.010617984 -0.012131422 0.0069617303 -0.00803133 -0.009057669 0.0059944205 -0.007147198 0.010247961 -0.007514051 -0.010372698 -0.022153012 -0.0053567523 0.009920656 -0.00093930325 0.0135141425 -0.016720487 -0.001963771 0.0145582985 0.0034356443 0.00728999 -0.0024147779 -0.0106416 -0.0021926719 -0.0038323745 0.015662847 0.00446126 -0.009379023 -0.0069760373 0.0020277128 0.0010813683 0.006266061 -0.0017026466 -0.020864053 -0.007312878 -0.01028665 0.010523408 0.0036146126 -0.0074154953 0.0119080795 0.0061509428 -0.0049955877 -0.0045643775 -0.0068599526 -0.02435707 0.0016121474 0.018346684 0.010276118 -0.0021577901 0.0021138522 0.009558467 -0.005060301 0.003702356 0.009220114 -0.017484216 0.0072091324 0.006324334 0.0065908176 -0.02329216 -0.004933124 -0.004491197 -0.008490925 -0.00433289 -0.018238623 0.004568193 -0.00077648734 0.008115379 0.00832927 0.0020572955 0.001496454 -0.0051745526 0.011094245 -0.004445887 -0.008782177 -0.0050517647 0.006174508 0.0040824437 -0.012619365 0.010376853 -0.0020914064 0.002379522 0.0031726018 -0.0028632297 -0.0033165922 0.020761564 0.008522969 0.0064719697 0.014914729 -0.0024700498 0.0062383604 -0.0039605265 -0.0015154299 -0.01734562 0.011285831 0.012392836 0.002113624 0.006120475 0.006089424
lady 0.0031778582 0.00272746 0.00081927737 0.010160397 -0.008559898 0.005195306 0.016040828 -0.0018271172 0.012641468 -0.008198646 -0.021526575 -0.0023363733 -0.008805076 -0.011276299 -0.0068506123 0.008411672 0.010604286 0.010621163 -0.0021744033 -0.0006676766 0.008854439 0.009588978 -0.004384168 0.0026224114 -0.011678266 0.0009346867 -0.009952987 -0.010389434 0.0061698314 0.010203772 -0.009608686 0.011142979 0.00807283 -0.007241162 -0.026599877 0.006580438 0.003407147 0.008057254 0.00943902 0.022496717 -0.0023513238 0.0013223795 0.008764713 -0.0008896908 -0.011831563 -0.00081972836 -0.008228269 0.005974715 -0.0044572656 -0.025338069 -0.029537424 0.006421036 0.0045140213 0.009129037 -0.012722669 0.008969588 0.0030946534 0.0022235387 0.0059000156 0.016852537 -0.0046049743 -0.022684118 -0.012228503 -0.0048734066 0.005146979 -0.005649087 0.009596374 -0.004505351 -0.016722972 0.013141163 -0.022654567 -0.0073968954 -0.021000514 0.0036539286 -0.0005875605 0.01635874 -0.002563854 0.0043485574 -0.00029304207 0.008081218 0.014190762 -0.005031902 -0.013695345 -0.00066624244 0.021813583 0.0022543706 -0.008390546 -0.014872565 -0.020849513 -0.023510564 0.004085865 -0.013298976 0.0049845316 -0.0050469134 -0.016807651 -0.017260402 -0.009630655 -0.008866676 -0.0023316902 -0.0066141332 0.011182834 0.005986336 0.00042079217 -0.003548405 0.00060723413 -0.029657478 0.006057517 -0.0027158528 -0.0034119058 -0.010841497 0.010920669 -0.009501324 0.008579281 -0.018392563 -0.00926944 -0.004432193 0.01525563 -0.012834739 0.010053808 -0.007216788 -0.007287202 0.025003856 0.017136175 0.004884838 0.0069553563 0.013323731 0.01126915 -0.0036730953 -0.014749045 -0.005987059 -0.0040750117 -0.004231378 0.01808121 0.01265758 -0.0117021315 -0.008480409 0.002212728 -0.013777253 -0.0041655838 0.007579058 -0.0044082757 -0.0026171359 0.0031420335 0.011958604 0.0068287193 0.011685856 0.0076000444 -0.008508596 0.003685009 0.0055073975 -0.019675221 -0.011244398 0.014596953 0.0014949389 -0.0031530368 -0.0012549747 -0.0033440609 -0.0054392545 -0.0011173876 0.0018240435 0.0027411557 0.00045325188 -0.021865463 0.0035837076 0.011036614 0.002672261 -0.017374078 0.01637685 -0.0077300426 -0.0052552503 0.006885468 0.00307826 0.0074849175 -0.003479798 0.0032876981 0.0008446668 -0.03146029 0.010743267 0.016623769 -0.020429786 0.005811118 0.015465197 -0.0008550899 -0.019055026 -0.007180072 0.0031617265 -0.004239827 -0.022934252 0.0061337873 0.0021755653 0.014114548 -0.010169077 0.008427042 -0.013215667 0.020865876 -0.0032005678 0.00022300784 -0.03051401 -0.002274379 0.00100123 0.015311843 0.005598951 0.02356062 -0.014870385 -0.015096064 0.009539591 -0.0068168873 -0.008903395 0.0051255855 -0.007615022 0.014047758 -0.011437107 -0.013821805 -0.024590207 -0.00452063 0.011444087 -0.0015940267 0.015652038 -0.020805465 -0.0035328893 0.01743295 0.00084732665 0.008764694 -0.0034638676 -0.015230047 -0.0047449186 -0.005322536 0.019537581 0.0055047767 -0.010800198 -0.009210755 0.0026415747 0.00016652512 0.0074164886 0.00056600285 -0.024744153 -0.009182793 -0.013424346 0.013653768 0.0024514021 -0.01239288 0.014773085 0.00539146 -0.005766144 -0.0048796562 -0.0067245555 -0.031366594 0.002408016 0.023342775 0.011496322 -0.0035230042 0.0022129242 0.014830053 -0.00916277 0.006069045 0.0136067355 -0.022286024 0.011177497 0.0099225575 0.009506266 -0.030311858 -0.007958446 -0.0054188212 -0.009365741 -0.0052219047 -0.025256595 0.007967352 -0.0031951324 0.0068449685 0.008901978 0.0010398306 0.0008628145 -0.008683528 0.012968066 -0.004781758 -0.011995974 -0.004048464 0.009031044 0.007367695 -0.012892288 0.012601853 -0.00291871 0.0019520614 0.0045219236 -0.003290746 -0.0063047884 0.025540331 0.010281621 0.009267932 0.021250164 -0.0028541596 0.009663324 -0.0057634152 -0.005124051 -0.020143135 0.016300954 0.015141269 0.0030473466 0.0072675096 0.0057184
think 0.002655787 0.0040912633 -0.0014337186 0.011738717 -0.010106818 0.005792976 0.015031241 -0.0005030997 0.013672554 -0.009176124 -0.023452327 -0.0009530723 -0.008044751 -0.011125141 -0.008403649 0.0053694616 0.008370883 0.010232789 -0.00021099445 0.0016696337 0.008602229 0.012140679 -0.0017575953 0.0014196323 -0.013773879 0.0025799142 -0.010729884 -0.009664072 0.0070020636 0.009305273 -0.011094793 0.010894057 0.007137106 -0.0049114805 -0.024577182 0.007670286 0.004779301 0.005568447 0.008744005 0.022674862 -0.002889752 7.610912e-05 0.007435103 0.0019335945 -0.012262455 0.0015422925 -0.007600319 0.0064503117 -0.003253115 -0.02532371 -0.029297657 0.0056826295 0.0017257613 0.009466484 -0.012419741 0.008708063 0.003606018 0.003993666 0.0042467006 0.017464485 -0.0020229246 -0.024040788 -0.013358339 -0.0057237213 0.003207195 -0.008313951 0.008166851 -0.0030908298 -0.015827078 0.011317274 -0.022751817 -0.0091040125 -0.018160695 0.0033584626 -0.0028261594 0.015162719 -0.0021772564 0.0014868862 -0.00010371685 0.009011255 0.01487652 -0.0043598544 -0.016067622 0.0014067348 0.02180381 0.0019598135 -0.008205112 -0.013350835 -0.019676449 -0.02352292 0.0026895243 -0.011845977 0.0070915637 -0.0042437934 -0.016482703 -0.017571816 -0.008564134 -0.010075182 -0.0034975503 -0.007177558 0.010069798 0.0060190153 0.0005008545 -0.0044641877 0.0022034128 -0.029118795 0.005894031 -0.0031937263 -0.003528358 -0.01045329 0.009056685 -0.010880149 0.007216952 -0.018671062 -0.007367647 -0.0022931958 0.012079104 -0.012379898 0.008346695 -0.006025687 -0.00832159 0.026539713 0.015519341 0.0044755586 0.0059785666 0.012026333 0.011130499 -0.0059779906 -0.014222442 -0.0066200397 -0.0034385002 -0.004287235 0.016396618 0.012329568 -0.011499431 -0.011303574 0.0018597597 -0.0144339595 -0.005045901 0.007406655 -0.0031931347 -0.0018044603 0.0029347225 0.010069844 0.0055067185 0.011285798 0.009082361 -0.0069918633 0.0030239583 0.0056294664 -0.019222707 -0.011857734 0.012916355 0.0008750465 -0.0036237552 -0.0032431576 -0.0008637765 -0.0066688024 -0.0029123363 0.0035375457 0.00062139274 0.001396605 -0.021190736 0.004077546 0.011746151 0.0030690436 -0.01507595 0.015076963 -0.0058715083 -0.005671034 0.008044901 0.003390029 0.0044597774 -0.004243502 0.0016388034 0.0031100253 -0.030451126 0.0094113555 0.014736944 -0.01762798 0.006270844 0.01669994 -0.0011261778 -0.01966618 -0.0074678785 0.0027719003 -0.0049120244 -0.02243344 0.0055853496 0.000296898 0.014873001 -0.012242672 0.007997598 -0.011065434 0.022008805 -0.0015912825 0.0001391118 -0.03122277 -0.003666489 0.0014901105 0.014524803 0.0056489366 0.022370545 -0.013865514 -0.015557347 0.010354205 -0.0088648265 -0.010431416 0.005128413 -0.0066573564 0.015517876 -0.012275423 -0.010605406 -0.027036127 -0.0044983164 0.012332659 -0.0035601777 0.014889019 -0.020848941 -0.0030939358 0.019889677 0.00223782 0.0068681734 -0.0015213083 -0.015312902 -0.0045791874 -0.0063869646 0.018447941 0.007158188 -0.009319283 -0.0103058675 0.0052568265 0.0008965077 0.006624906 -0.0019429208 -0.025287047 -0.008426725 -0.013423939 0.012204928 0.002492637 -0.011555218 0.015623341 0.006157465 -0.0054146913 -0.004339436 -0.0058511924 -0.03236711 0.002028943 0.02286098 0.010558493 -0.0047376985 0.002339235 0.012349413 -0.0076604607 0.0048201317 0.013120084 -0.023167059 0.010984373 0.009620425 0.007691742 -0.02884523 -0.006828556 -0.0030527045 -0.009408224 -0.0036681131 -0.022403238 0.0063816053 -0.0013400507 0.00787855 0.008353166 0.0026128502 0.00010782924 -0.007875911 0.01189515 -0.006764608 -0.012242415 -0.0029411085 0.010065031 0.006581058 -0.013330053 0.012469551 -0.004546803 0.0034778868 0.0023728353 -0.006065727 -0.0042198817 0.024037506 0.009344758 0.008375512 0.020555474 -0.0027438516 0.007881324 -0.0038168237 -0.0032359895 -0.019047014 0.015513154 0.0130623 0.002857266 0.009034702 0.0062193917
about 0.0036417681 0.003842464 0.00039106092 0.010412051 -0.0060018143 0.0056451503 0.015147096 -0.0017129428 0.010087741 -0.0087894285 -0.018370071 -0.0030778407 -0.008723928 -0.008097039 -0.0055324743 0.0057365266 0.008665308 0.007551346 -0.0008333377 0.0014960951 0.008908913 0.009965639 -0.0031831497 0.001238742 -0.011220461 0.0001605996 -0.009263168 -0.009444018 0.0047277943 0.008884925 -0.011145265 0.008600197 0.005312453 -0.004697795 -0.022841603 0.006140214 0.0040267063 0.0059562563 0.0057180487 0.01875786 -0.004447778 0.00013600233 0.006124018 0.0011702238 -0.008998958 -0.0008277399 -0.008305567 0.0047768704 -0.0029952633 -0.024397105 -0.025120772 0.0033100676 0.0020962118 0.007584274 -0.012682844 0.008314508 0.0022320107 0.002027856 0.002958038 0.015838973 -0.0020092595 -0.020020613 -0.011342553 -0.0029167726 0.0044920715 -0.007505586 0.008041034 -0.0033185165 -0.014342078 0.010587756 -0.021552715 -0.008493599 -0.016735502 0.0043746443 -0.00048363715 0.015839262 -0.0033155647 0.0025699716 -7.987494e-05 0.008751034 0.012213888 -0.005000746 -0.013605885 -0.00011621241 0.017403938 0.0005308191 -0.006508691 -0.012475038 -0.01740309 -0.022495076 0.0033177694 -0.0118189035 0.0054778676 -0.0027890003 -0.013241815 -0.015727283 -0.009351939 -0.008599675 -0.0015864241 -0.00396153 0.008019983 0.0057605715 0.0006660349 -0.0029152296 -0.0004279324 -0.027370846 0.0052466905 -0.0018326704 -0.003134662 -0.008898396 0.0105407545 -0.009017472 0.005703305 -0.017054971 -0.008008912 -0.002551834 0.012532968 -0.010855506 0.010193256 -0.0059618163 -0.0043240497 0.022558128 0.013002339 0.0050212787 0.004089364 0.008798189 0.011240011 -0.00410319 -0.011327193 -0.003171867 -0.0024221446 -0.0036342666 0.01575976 0.009746714 -0.009574168 -0.0071527027 0.0030138565 -0.013771078 -0.0053572753 0.007972413 -0.004830287 -0.00378984 0.005457497 0.011561333 0.0034643374 0.008714714 0.0072425483 -0.005513557 0.0035821942 0.0050254273 -0.016701842 -0.0108251935 0.013079472 0.00092275837 -0.0039606877 -0.001280721 -0.0015071402 -0.0060066525 -0.0019757503 0.0038174146 0.00248028 3.2586548e-05 -0.018748911 0.0027412593 0.010819071 0.0007933537 -0.014963179 0.014493543 -0.006553599 -0.0020916862 0.008355585 0.0039553354 0.006698308 -0.0031664907 0.0030330736 0.0013930895 -0.028434364 0.0097255455 0.014184312 -0.017546415 0.00339989 0.014618556 -0.0014957095 -0.014848649 -0.008771405 0.0049809995 -0.0054420987 -0.02073845 0.006105267 0.0007173049 0.012419819 -0.011011318 0.0075926133 -0.01080194 0.019232208 -0.0028567042 0.0024298758 -0.028190007 -0.0033649886 0.0006201812 0.013413812 0.0054776277 0.018929506 -0.014229184 -0.010931807 0.008709077 -0.005679667 -0.009965005 0.004574306 -0.006977584 0.013797179 -0.009936934 -0.0094960965 -0.022751741 -0.0027111436 0.009554092 -0.001007512 0.012245376 -0.020095296 -0.0034127238 0.015394478 0.0022293949 0.006649307 -0.0024112614 -0.012708848 -0.0024486992 -0.0043770107 0.01693293 0.0049376106 -0.00781306 -0.0064639845 0.0026378457 -0.0004936274 0.0069530453 -0.0013132432 -0.024335008 -0.0067104013 -0.010684541 0.009972081 0.0038950823 -0.009368154 0.015014369 0.00592224 -0.004132577 -0.0049186395 -0.0051537035 -0.029336102 0.0024415336 0.019293357 0.008732296 -0.00304717 0.0032708263 0.0118627995 -0.0075081605 0.003626154 0.010674661 -0.018815044 0.010230336 0.009166281 0.0075771953 -0.024339357 -0.0076400097 -0.004995691 -0.0071350816 -0.006197777 -0.021073077 0.006846191 -0.0011213463 0.006842288 0.007606461 0.0031374109 0.0013503446 -0.0060558664 0.0119545 -0.004316436 -0.010211263 -0.0021421409 0.0066264207 0.0055875536 -0.013292289 0.010288498 -0.0019642087 0.0015049528 0.0017572277 -0.0028071736 -0.0032354782 0.020918673 0.008416293 0.008098611 0.016598523 -0.0028758429 0.0063281273 -0.004787863 -0.0031374528 -0.016822584 0.0127950935 0.012325069 0.0007043357 0.007024935 0.005706244
her 0.0012380476 0.0045691724 0.0002650214 0.011280637 -0.009005164 0.006096412 0.016191052 -0.0034000967 0.011864107 -0.010760478 -0.020427348 -0.0028237079 -0.0074418434 -0.009090554 -0.008648698 0.0064418726 0.008679796 0.0090330485 -0.0017276814 0.00050485344 0.008299495 0.012019062 -0.0038150407 0.0026134574 -0.013638665 0.000643064 -0.012503856 -0.010684068 0.0070429645 0.010331947 -0.008802827 0.010730261 0.005452936 -0.006246506 -0.026079612 0.0073159314 0.0033045523 0.0059650084 0.0064402586 0.022062436 -0.0042646667 0.0012392831 0.007632678 -0.0007624681 -0.011468674 0.0013664633 -0.008045701 0.006421129 -0.0053215004 -0.02462093 -0.028023424 0.0040685153 0.002972444 0.008885051 -0.012946037 0.008972023 0.0026005656 0.0037679814 0.0054118508 0.014965025 -0.0036912146 -0.023924664 -0.0125886025 -0.0036569764 0.0026528526 -0.005491068 0.010828811 -0.005705935 -0.016341794 0.009637543 -0.02273701 -0.009260195 -0.018333556 0.0058073527 -0.0007590827 0.017866665 -0.0029486348 0.0033162422 -0.0014550954 0.008070822 0.0139112985 -0.0046948334 -0.015526607 0.00097197713 0.01888491 0.002650323 -0.0070899366 -0.015279958 -0.018586602 -0.022931805 0.0046074796 -0.011577412 0.0041704644 -0.0037308948 -0.015816692 -0.017002493 -0.0068730502 -0.0075241146 -0.0033981053 -0.0059294365 0.008793741 0.0036936847 -0.0011994996 -0.0042013945 0.00021447848 -0.029146498 0.0062876777 -0.002382328 -0.0029236895 -0.00817106 0.01002018 -0.010681149 0.005917483 -0.01873712 -0.007881979 -0.0020856177 0.013611104 -0.012120805 0.009563322 -0.0042104307 -0.005486245 0.025177022 0.014369241 0.0029029213 0.0068929233 0.012746342 0.011999648 -0.0058470434 -0.012161655 -0.005826006 -0.004239449 -0.0042491867 0.018673707 0.010976729 -0.012296822 -0.011165043 0.003527728 -0.014700369 -0.005101341 0.005348198 -0.0035606117 -0.0047729234 0.0042164745 0.01105991 0.0038944285 0.009579202 0.0060813664 -0.0060495534 0.0014571917 0.0063054743 -0.019072711 -0.013089932 0.014741937 -0.0012960354 -0.0036256816 -0.002585971 -0.0028651473 -0.0035386255 -0.0017299253 0.0022499268 0.0018745823 -0.00049018825 -0.020623313 0.0053516724 0.011079425 0.0035640188 -0.016353814 0.013713888 -0.006818866 -0.0035603235 0.00677387 0.0028601724 0.006174308 -0.0036920193 0.0035355955 0.0020446714 -0.033526756 0.009950472 0.016893553 -0.019264825 0.00573797 0.016206356 -2.8175487e-05 -0.016795032 -0.008215097 0.004157028 -0.003654938 -0.023504253 0.0058661755 0.0016598149 0.014310722 -0.010055681 0.0077247047 -0.011699819 0.020747362 -0.0019475007 -7.362331e-05 -0.031389184 -0.0026340422 -0.00012979451 0.013185935 0.0070714336 0.021921672 -0.0131081315 -0.014742435 0.009398591 -0.00637789 -0.009783576 0.006819291 -0.006291785 0.01290199 -0.009262175 -0.011381486 -0.02687862 -0.004807816 0.011796426 -0.0035422274 0.014392418 -0.020761652 -0.0032436112 0.018574942 0.00079862867 0.00884944 -0.00027201851 -0.014545438 -0.0055831405 -0.0057358015 0.019331278 0.0051046214 -0.008793067 -0.008961708 0.004515674 -0.0002685047 0.006169505 -0.0018478329 -0.02537025 -0.009779937 -0.011837534 0.012608402 0.0042568706 -0.009454468 0.0141184395 0.007082928 -0.0047996063 -0.0045350436 -0.0071509266 -0.02956456 0.0007791924 0.022749731 0.011571542 -0.0041458462 0.003662989 0.013127222 -0.0067847227 0.005519379 0.014047349 -0.022539167 0.009923804 0.010337969 0.009941833 -0.029561352 -0.006458477 -0.0034409245 -0.009240746 -0.0035589237 -0.02201539 0.008480146 -0.003246348 0.006985962 0.01105326 0.00375819 0.00183424 -0.005552372 0.013341868 -0.006711845 -0.012849168 -0.005732179 0.009916843 0.0053307656 -0.015279189 0.01054865 -0.0048501496 0.0024036106 0.0029726287 -0.005213351 -0.005378126 0.022309396 0.0094537465 0.010061448 0.017638043 -0.0036142832 0.009992523 -0.006020098 -0.0033668033 -0.01919953 0.014925528 0.014813329 0.00060848077 0.0073286067 0.0072680395
past 0.0013118974 0.0045653773 -0.001972587 0.009436074 -0.00665716 0.0044479757 0.013651478 -0.002616364 0.011345313 -0.0073469416 -0.021151677 -0.0013455795 -0.009281192 -0.009810682 -0.006127247 0.0055193505 0.010269109 0.0102950195 -0.002599381 -0.00064574525 0.009313688 0.011705445 -0.0038927828 0.0045584016 -0.011446257 -4.9758055e-05 -0.012316785 -0.011615478 0.0065430375 0.008841236 -0.010413208 0.009088049 0.0073152888 -0.005380916 -0.02456874 0.008701006 0.0047828415 0.0065018297 0.006969557 0.02140987 -0.005007376 0.0014956065 0.007981085 0.0017829129 -0.010745164 0.0009709212 -0.0076434608 0.0047052936 -0.0041468753 -0.024441462 -0.0279025 0.004612537 0.0042461934 0.007337375 -0.011346845 0.006814995 0.0018896944 0.0042999177 0.004848307 0.015908236 -0.0036241645 -0.02362178 -0.010468511 -0.0033764828 0.005043474 -0.0075649302 0.0073887426 -0.0026579595 -0.014058702 0.009948394 -0.020707713 -0.006386786 -0.020686379 0.0062772674 -0.0022819878 0.017534953 -0.0019800307 0.0037126276 0.0009602907 0.007761702 0.013258332 -0.0055771666 -0.013405946 -0.00044992208 0.019901333 0.0008589182 -0.009353274 -0.013149919 -0.019027911 -0.024392534 0.005431791 -0.011090089 0.005387796 -0.002143267 -0.014455749 -0.017873142 -0.009110458 -0.009910935 -0.0019748027 -0.0053288904 0.009134818 0.0042319563 -0.00012032376 -0.0045362585 0.0020238552 -0.027500972 0.0051440177 -0.0034632452 -0.0029228986 -0.008630902 0.011434659 -0.00952661 0.0076731495 -0.017053813 -0.0073988945 -0.0025086962 0.014417699 -0.012471289 0.0106180115 -0.0042130514 -0.007566135 0.025062032 0.01402103 0.0034568107 0.0073548686 0.012911826 0.012949242 -0.0055068927 -0.011204677 -0.0046577184 -0.0034791809 -0.0031634397 0.017267175 0.012137384 -0.011731006 -0.0107622985 0.004503748 -0.01273605 -0.004237873 0.007860988 -0.0033466998 -0.0044263243 0.0039536655 0.011688082 0.004186609 0.011118235 0.0065848525 -0.0077921557 0.0015499206 0.0061812955 -0.017169466 -0.009970631 0.012678691 0.0008799643 -0.0031255542 -0.0021565917 -0.002631169 -0.0055487016 -0.002002581 0.0017056635 0.0005748051 0.00042071316 -0.023284134 0.0028458594 0.011885352 0.0022167957 -0.014881341 0.015551402 -0.007538074 -0.0052705733 0.008525668 0.005566396 0.0069789942 -0.003702741 0.0037720478 0.001968211 -0.03051768 0.0084888525 0.015076801 -0.019567275 0.0062448652 0.0151214795 -0.00058265036 -0.016950531 -0.009651791 0.0035627498 -0.0044619185 -0.022722421 0.004984837 0.00065270066 0.012782448 -0.012377348 0.006885887 -0.010325521 0.020692287 -0.0018517129 0.0017790959 -0.030710671 -0.0027553223 0.002129247 0.014734179 0.006350766 0.021723788 -0.014582918 -0.01373453 0.008770478 -0.0077428753 -0.009788523 0.00734385 -0.006260253 0.013759653 -0.012211994 -0.011000529 -0.024561632 -0.0055609127 0.010266738 -0.0021468871 0.0153348 -0.019029979 -0.0007076074 0.017412094 0.0017234766 0.005832266 -0.0014546758 -0.014271163 -0.005601479 -0.0044424334 0.017377267 0.0065203016 -0.010907971 -0.008866132 0.0051805684 0.0014018316 0.0059136464 -0.00049662346 -0.024996316 -0.009221067 -0.013409828 0.012002399 0.00229843 -0.009742256 0.015243175 0.0045886403 -0.005395121 -0.006248715 -0.007082858 -0.031399805 0.0007813384 0.021346293 0.011345458 -0.0058640437 0.0040377397 0.014448346 -0.0077656815 0.005944396 0.014071016 -0.02233868 0.009344644 0.00924681 0.008193497 -0.028854445 -0.0086470535 -0.0041667377 -0.00821448 -0.003422062 -0.023046756 0.0071538347 -0.0035073555 0.007189259 0.009073704 0.0040017175 -3.402042e-05 -0.008130242 0.0107021285 -0.005291468 -0.012058955 -0.0029603092 0.010153268 0.0071454383 -0.012835042 0.010862672 -0.004589427 0.0032684996 0.0046905056 -0.00526332 -0.0050887894 0.022501294 0.011909252 0.0088244025 0.020430855 -0.0027740614 0.008320074 -0.0043778927 -0.0035218357 -0.020726018 0.014355157 0.01452855 0.002708362 0.0064172535 0.007353277
Toddlers 0.0016101769 0.0038821234 -0.00042321265 0.007446942 -0.00671619 0.0034391242 0.00852518 -0.0028975047 0.008008476 -0.005186767 -0.01284053 -0.00070843264 -0.0065448834 -0.0054383106 -0.0048035434 0.0048923623 0.004506644 0.007621865 -0.00026078822 0.0013326692 0.0067281593 0.007227197 -0.0007608277 0.0019873763 -0.008968983 0.0022886808 -0.0062459013 -0.0065902052 0.00605729 0.0054757227 -0.0068217334 0.0053042793 0.0052033933 -0.0034674606 -0.018539838 0.0066456688 0.0027314525 0.0031915247 0.00539434 0.012717125 -0.002478414 0.0003339522 0.006266994 0.00068788603 -0.006376844 0.00054408744 -0.0058667166 0.0045513054 -0.0027328394 -0.017236255 -0.01659708 0.0037196067 0.0007991717 0.0052478025 -0.008376427 0.006159452 0.0011928628 0.003302142 0.0020840787 0.012463698 -0.0011053293 -0.014549763 -0.008418596 -0.00132679 0.0023809196 -0.0036554737 0.005208686 -0.0028722968 -0.0108158225 0.008800927 -0.014164676 -0.0053811707 -0.012804577 0.0031023582 -0.0011546464 0.012364888 -0.001506118 0.002879305 0.0007236988 0.004019303 0.009997004 -0.0027847039 -0.009799587 0.00044237426 0.013597476 0.0017231095 -0.004174212 -0.008797555 -0.011871123 -0.014204976 0.0034536459 -0.0078362385 0.0041941325 -0.0015096035 -0.009307963 -0.011650374 -0.004038075 -0.00599261 0.000113325 -0.004024986 0.0064765736 0.0026885387 0.0008675642 -0.003894423 0.0014874118 -0.017426424 0.00522159 -0.0012974378 -0.0019757117 -0.0068372735 0.007511501 -0.007095176 0.0043154852 -0.010792223 -0.006503927 -0.00032570338 0.0075414847 -0.00962681 0.006932717 -0.0036891797 -0.005810186 0.017885264 0.008700529 0.0025065024 0.005061613 0.006128967 0.0064718174 -0.0031898888 -0.007016315 -0.004481599 -0.0036138631 -0.0035509614 0.012821522 0.009078831 -0.008467653 -0.0066743298 0.0016728798 -0.0073650274 -0.004573111 0.0042244447 -0.001959776 -0.0012384555 0.001722289 0.0083176885 0.0025428494 0.0061401855 0.00597682 -0.0038375012 0.00084230554 0.0029823207 -0.01268273 -0.007186501 0.009845572 -8.435108e-05 -0.0023383715 -0.001726395 -0.0016815723 -0.0028215565 -0.001006779 0.0023634767 0.0007532345 0.00082292897 -0.013918037 0.003820142 0.0072215605 0.0016761328 -0.009301432 0.0093373 -0.0034093624 -0.0014350098 0.0056617754 0.002910497 0.0043519735 -0.0030673156 0.0005892316 7.680792e-05 -0.01980965 0.0051286453 0.011760932 -0.011790806 0.0038866163 0.010226243 -0.00055024814 -0.010947054 -0.006923801 0.0012789088 -0.003746941 -0.015212587 0.004448642 0.0013273278 0.008804085 -0.008427666 0.005922733 -0.008456375 0.015185716 -0.0010493913 0.0013521455 -0.018916069 -0.0012665086 -0.0011577748 0.009950315 0.002836962 0.014009909 -0.009170367 -0.010354492 0.0055950065 -0.00681392 -0.0069763293 0.004635023 -0.0040255426 0.009587572 -0.007800371 -0.006599952 -0.015423337 -0.0029375865 0.00854213 -0.0021681173 0.0089501785 -0.0135402 -0.0017372059 0.013010065 0.0027278299 0.005942688 -0.0012229871 -0.008818028 -0.004573635 -0.0037408525 0.012840056 0.0052862335 -0.008364737 -0.0057576327 0.0013518888 0.0005940334 0.0031956055 -0.0010128393 -0.01667663 -0.004761788 -0.007766889 0.007657145 0.0025152771 -0.0076654097 0.011457439 0.004531774 -0.004667541 -0.0043816585 -0.0060182433 -0.020296972 0.00010629963 0.013562943 0.008222761 -0.0025290968 0.0031781804 0.007768339 -0.003707361 0.0043889196 0.008189923 -0.014275081 0.006323631 0.007053783 0.007699812 -0.01808531 -0.0038324536 -0.0030336888 -0.0065404032 -0.0030560717 -0.015119931 0.0031764484 -0.0032358645 0.0063808123 0.0076954425 0.0013976876 -0.0009786221 -0.0044779642 0.0073368866 -0.0030452015 -0.0096962005 -0.003804803 0.0046385117 0.0035510764 -0.0104588065 0.007087404 -0.0010238342 0.0026272214 0.0023117247 -0.00217953 -0.004975605 0.015705679 0.0065916693 0.00659556 0.011255322 -0.002921803 0.0046513434 -0.0021285156 -0.0030115056 -0.012647035 0.009866606 0.0074057304 0.0023399647 0.003947381 0.005778746
feeding 0.0017737293 0.0022375176 -0.0015273163 0.007866459 -0.006495617 0.0038606697 0.011798591 -0.0004784479 0.008630999 -0.0069951937 -0.017060116 -0.002369014 -0.005471459 -0.008465404 -0.0052935067 0.0054532797 0.007821741 0.007067444 0.00023678425 0.00020289283 0.004973541 0.0064470684 -0.002721456 0.0011729235 -0.008336083 0.0019529023 -0.0065969517 -0.009143014 0.0063871494 0.007939745 -0.0063239574 0.0070814406 0.0053917076 -0.003030529 -0.018078841 0.006275686 0.0020195956 0.0041992995 0.0051976554 0.01473637 -0.0008891504 -0.00036067617 0.0049173934 -5.4939945e-05 -0.009346867 0.0013246116 -0.006624296 0.0021514352 -0.0013577753 -0.019061683 -0.020637063 0.0047171614 0.00079081394 0.0055559557 -0.008558224 0.003868266 0.0020099792 0.0011209405 0.00487873 0.011604854 -0.0014754592 -0.016459784 -0.009904074 -0.0028872627 0.0020060241 -0.0054347143 0.0053432398 -0.0038361743 -0.0114445975 0.009212566 -0.016861878 -0.005761025 -0.01452805 0.0049541215 -0.0025187435 0.010510742 -0.0028797486 0.0009640202 0.0012605098 0.0073348116 0.010294347 -0.0038930788 -0.009212757 0.00021559723 0.015422053 0.001266082 -0.004767072 -0.008935569 -0.01522154 -0.017027851 0.0011052465 -0.0084073115 0.0041297567 -0.0013601687 -0.01160563 -0.011221561 -0.005856705 -0.007999105 -0.0021333103 -0.005249917 0.0060958513 0.004200739 -0.00016697531 -0.0020398863 0.001154417 -0.022016708 0.0027352448 -0.0022799112 -0.001717896 -0.004895699 0.0063878787 -0.008645526 0.0061876313 -0.011617664 -0.006818303 -0.003317368 0.009824031 -0.011072719 0.007840742 -0.0032761293 -0.0056678746 0.01786873 0.012196331 0.0013799509 0.0029655062 0.007909663 0.009821321 -0.0049200095 -0.010945721 -0.00463806 -0.0024096936 -0.0036813463 0.014015886 0.009466859 -0.007863689 -0.0082175955 0.0025381362 -0.009878842 -0.0050852043 0.004931736 -0.0030924017 -0.0024882515 0.0046776137 0.009323029 0.002169636 0.00598259 0.006000936 -0.006583137 0.00278112 0.0025678396 -0.013323593 -0.0087486785 0.00815501 0.0016199031 -0.0016971608 -0.000537268 -0.0010618013 -0.0040808637 -0.00045334332 0.0032100843 -0.00047433178 0.00055870804 -0.017042331 0.0015915091 0.008149649 0.0019260892 -0.011525113 0.010985946 -0.0047470885 -0.0012841765 0.0065872413 0.00423798 0.0050262 -0.003378282 0.00046802373 0.0027489478 -0.022328697 0.007545747 0.012149038 -0.012971037 0.0032264197 0.011969267 -0.0012643257 -0.012837793 -0.0064108996 0.0039623044 -0.0035502634 -0.017624341 0.0048522134 0.0007726393 0.008777631 -0.009341377 0.004029283 -0.006779047 0.015877021 -0.00082727254 0.00081288686 -0.021023301 -0.00049762486 0.0016572897 0.009008175 0.004468109 0.017191287 -0.011194309 -0.009176107 0.008422136 -0.00652919 -0.005274541 0.005896881 -0.004197807 0.009889331 -0.0069119846 -0.007149908 -0.017872205 -0.0033626426 0.0061868452 -0.00084994937 0.010851311 -0.013945663 0.00026359264 0.014715704 0.0026849648 0.00643549 -0.0026193962 -0.010637017 -0.0031280154 -0.0030402953 0.014166006 0.005488942 -0.007297966 -0.007402758 0.002528131 0.0017340697 0.0052338634 0.0012964758 -0.017388856 -0.007130851 -0.009802191 0.010433935 0.0023215956 -0.007939792 0.011051545 0.0050728503 -0.005611224 -0.002089129 -0.004117842 -0.020513799 0.00045213438 0.016801672 0.0095250225 -0.0026765948 0.0011908271 0.007983354 -0.0060253143 0.00257574 0.009684438 -0.016348321 0.008207738 0.006420341 0.0066164713 -0.019912705 -0.004049594 -0.0043151146 -0.0049596257 -0.0040532905 -0.017031258 0.0047161784 -0.0006423853 0.004858211 0.0072129937 0.002100937 0.0010628105 -0.0041383393 0.008260885 -0.004397328 -0.0082471315 -0.0028691776 0.0070828693 0.0052527897 -0.0091081 0.0074707256 -0.0019939644 0.0005057134 0.0021056752 -0.0034678509 -0.0048200455 0.016505837 0.007984871 0.00766145 0.014651092 -0.003948859 0.0068943957 -0.0053119063 -0.003949613 -0.014924423 0.012268515 0.007917191 0.0019092984 0.004805874 0.0040777163
raccoons 0.0006388422 0.0038297542 -0.0010581042 0.009094568 -0.0059159864 0.0030080401 0.010385011 -0.0031427343 0.009615882 -0.005690121 -0.015953343 -0.0020662586 -0.0075826636 -0.006642348 -0.006317978 0.0038740053 0.0065270034 0.008497355 -0.0005028776 0.002155072 0.0049739364 0.008651132 -0.0025138957 0.003632012 -0.007264279 0.0027448467 -0.008341065 -0.008898057 0.0061349636 0.00511638 -0.00654579 0.006915799 0.0059637646 -0.0037126439 -0.020103713 0.005819355 0.0027274145 0.0029943818 0.006291391 0.014538585 -0.002190504 0.00018730824 0.0058663823 0.0015505367 -0.0073212166 -0.00044492792 -0.007054227 0.0035355936 -0.0041462625 -0.018110862 -0.019050132 0.003107928 0.0019363647 0.004149918 -0.009167814 0.00444652 0.0036087914 0.0033040126 0.002184523 0.0111231245 -0.002022487 -0.014985681 -0.0074042394 -0.0032690798 0.0025931103 -0.0058003054 0.0072320323 -0.0026091856 -0.011910456 0.008518836 -0.015931847 -0.005423721 -0.014192231 0.0034459599 6.932008e-05 0.010990447 -0.002659351 0.000107102125 -0.00060222356 0.005856633 0.011005924 -0.0033274873 -0.009665516 -0.00015749874 0.013796266 0.00082790694 -0.0049931654 -0.011412352 -0.013050612 -0.018250525 0.0029623802 -0.009778901 0.004765549 -0.0019967372 -0.011120287 -0.01265387 -0.0049109547 -0.007846829 -0.0006258743 -0.0032112834 0.005737315 0.004909662 -0.0009583096 -0.0020459916 -0.0010029144 -0.022042898 0.0038481976 -0.001087208 -0.0029521233 -0.006038657 0.008976457 -0.006017208 0.0035379222 -0.011575307 -0.006076932 -0.0007192373 0.008785268 -0.008001315 0.007543909 -0.0043842476 -0.0038585612 0.017980127 0.012391056 0.0037559888 0.0035849353 0.009199776 0.009786866 -0.0035704228 -0.01059651 -0.0027431457 -0.0032272227 -0.0025408585 0.011162928 0.007844082 -0.008758543 -0.006717153 0.003443708 -0.011037518 -0.0040485025 0.0060981167 -0.001442011 -0.0016138504 0.0048717456 0.0068107042 0.0026848614 0.008550747 0.004036996 -0.006740621 0.00341968 0.002598955 -0.013452862 -0.0077722976 0.008208935 0.0005946225 -0.0021431693 -0.0024743362 -0.0020875896 -0.0049628164 -0.0022929737 0.0009331531 0.0005294487 0.0012176709 -0.017206402 0.0040027085 0.0077098785 0.0027524335 -0.012874799 0.009518779 -0.003924233 -0.0043386705 0.006394529 0.0026750565 0.003614568 -0.0013812396 0.0023914757 0.0014250405 -0.023358632 0.0069304826 0.010652387 -0.013374158 0.0039634155 0.011758527 0.0008970247 -0.013848973 -0.0069324607 0.0022151282 -0.0030376199 -0.015440238 0.004861728 -0.0011820282 0.009686746 -0.0068750763 0.004448737 -0.0073854947 0.015480149 -0.002612793 -0.0005509013 -0.02137243 -0.0025612519 0.0010944135 0.009452317 0.0050492375 0.014541689 -0.010801897 -0.008736059 0.0085886195 -0.006700871 -0.0076914746 0.005751252 -0.0037316708 0.008656505 -0.00864598 -0.0080364365 -0.019117253 -0.0043557137 0.008833572 -0.0020333098 0.012061087 -0.013216709 -0.0024212985 0.013891352 0.00045842378 0.005565389 6.8898764e-05 -0.009235572 -0.0046391757 -0.0027869823 0.015323962 0.0038905588 -0.008824489 -0.0051600426 0.0028993296 0.0003805412 0.004975033 0.00016527061 -0.018798321 -0.0071757957 -0.009787555 0.010464902 0.001904189 -0.008528101 0.010208241 0.0054334914 -0.004142403 -0.003902385 -0.0067121373 -0.02094181 0.0017769852 0.013566425 0.0065703304 -0.003037273 0.0028443087 0.010013889 -0.0065363464 0.003153276 0.008556778 -0.014441896 0.007887841 0.006383235 0.00569122 -0.020680975 -0.0051377714 -0.002715733 -0.005235623 -0.0034076793 -0.01846157 0.005096134 -0.00033896568 0.006980414 0.0070091384 0.00066901464 -0.0005079695 -0.005551485 0.009157692 -0.0046345494 -0.009873055 -0.0016227153 0.0072637773 0.0054674586 -0.00881498 0.0070882845 -0.0020932765 0.0012666419 0.002718142 -0.002687766 -0.0032163737 0.018390507 0.0062896414 0.0064845434 0.012358071 -0.0016615263 0.007546896 -0.0030073614 -0.0014587893 -0.0154421935 0.010910017 0.00896651 -4.914809e-05 0.006240198 0.004768962
